SVM-light Version V6.02
0 # kernel type
3 # kernel parameter -d 
1 # kernel parameter -g 
1 # kernel parameter -s 
1 # kernel parameter -r 
empty# kernel parameter -u 
11389 # highest feature index 
200 # number of training documents 
141 # number of support vectors plus 1 
-0.26716573 # threshold b, each following line is a SV (starting with alpha*y)
-0.18114504400172038 1:0.089373901 2:0.0250847 3:0.044000398 4:0.0083347 65:0.0186924 116:0.0160574 120:0.0152005 168:0.021327499 171:0.0156096 190:0.0178441 226:0.0122117 229:0.0319122 231:0.0111615 256:0.019786101 269:0.017151 271:0.0134223 296:0.0178441 303:0.016565001 313:0.029816899 317:0.0110326 320:0.0148467 322:0.039572101 323:0.017151 341:0.0156096 408:0.0438908 415:0.021327499 419:0.016565001 435:0.0148003 470:0.0152091 479:0.017151 510:0.157388 588:0.0073039001 591:0.0112949 634:0.021327499 667:0.021327499 672:0.021327499 677:0.121593 709:0.021327499 731:0.023565499 759:0.0178441 844:0.021327499 845:0.021327499 892:0.0178441 896:0.019786101 909:0.035642698 924:0.020679001 944:0.021327499 951:0.021327499 965:0.021327499 967:0.039572101 998:0.0110326 1034:0.0051494101 1039:0.017151 1047:0.0107872 1051:0.0134223 1056:0.0268247 1087:0.0095766196 1135:0.021327499 1150:0.012574 1166:0.014516 1198:0.0186924 1254:0.082824998 1255:0.042654902 1275:0.034302 1276:0.021327499 1277:0.037384801 1307:0.021327499 1369:0.039572101 1372:0.021327499 1405:0.0608362 1410:0.0263837 1434:0.062679499 1439:0.037494499 1449:0.0480869 1491:0.063432299 1504:0.016565001 1652:0.021327499 1681:0.0136677 1720:0.0098450799 1723:0.0160574 1726:0.0268446 1753:0.0152091 1772:0.039572101 1815:0.021327499 1817:0.0112949 1878:0.0142117 1923:0.0123885 1979:0.021327499 2034:0.021327499 2060:0.0118809 2062:0.014516 2094:0.0160574 2101:0.016565001 2136:0.017151 2290:0.016565001 2351:0.021327499 2360:0.0095766196 2375:0.048172101 2376:0.027335299 2433:0.0122117 2434:0.035688199 2441:0.021327499 2516:0.034302 2560:0.0104466 2572:0.0090153702 2587:0.0142117 2602:0.019786101 2604:0.029693499 2605:0.019786101 2654:0.017151 2718:0.0178441 2753:0.0160574 2827:0.021327499 2830:0.0117257 2885:0.0178441 2921:0.021327499 2981:0.035688199 2993:0.048290301 2998:0.019786101 3004:0.0094076302 3008:0.029031901 3013:0.012574 3034:0.012769 3063:0.0148467 3082:0.0160574 3119:0.0186924 3143:0.0090153702 3259:0.0160574 3265:0.021327499 3267:0.019786101 3273:0.0186924 3286:0.0123885 3290:0.0239341 3318:0.021327499 3321:0.0186924 3325:0.033130001 3524:0.021327499 3535:0.057984099 3543:0.0114331 3549:0.0289921 3551:0.0160574 3553:0.025537999 3578:0.021327499 3646:0.017151 3647:0.019786101 3723:0.021327499 3835:0.0330978 3883:0.025537999 3886:0.036983401 3905:0.0082120597 3918:0.021327499 3968:0.0082120597 3981:0.040350199 4004:0.0094911903 4026:0.021327499 4080:0.087758496 4094:0.029693499 4104:0.021327499 4106:0.056378301 4116:0.0178441 4138:0.0200704 4149:0.019786101 4160:0.0118809 4299:0.079182699 4303:0.0134223 4357:0.0098450799 4367:0.025148001 4393:0.13362101 4436:0.021327499 4489:0.021327499 4496:0.0148467 4503:0.021327499 4515:0.033130001 4584:0.019786101 4587:0.024085401 4606:0.022956001 4617:0.021327499 4622:0.083404802 4624:0.021327499 4654:0.021327499 4691:0.027272001 4723:0.024777099 4724:0.0156096 4726:0.019786101 4788:0.0301056 4843:0.092372999 4873:0.021327499 4897:0.021327499 4927:0.0187022 5000:0.061825 5026:0.025537999 5032:0.019786101 5055:0.0186924 5082:0.019786101 5087:0.0139299 5117:0.0142368 5134:0.019786101 5146:0.019786101 5163:0.0160574 5242:0.0111615 5244:0.0092458399 5302:0.035688199 5350:0.059776898 5372:0.094788499 5476:0.0134223 5492:0.0263837 5494:0.021327499 5553:0.0174566 5589:0.023451401 5590:0.0178441 5616:0.035688199 5643:0.021327499 5667:0.069826603 5670:0.0142117 5671:0.0186924 5736:0.0152091 5790:0.0109079 5809:0.035688199 5814:0.074769698 5846:0.0142117 5848:0.012769 5850:0.0178441 5894:0.042654902 5936:0.0118809 5960:0.021327499 6001:0.021327499 6002:0.106637 6027:0.048846699 6028:0.0117257 6031:0.0139299 6039:0.0853099 6040:0.021327499 6166:0.0109079 6186:0.022800799 6192:0.0098450799 6214:0.093790598 6217:0.044645902 6237:0.0186924 6262:0.0178441 6270:0.0181813 6302:0.014516 6308:0.012769 6309:0.0186924 6321:0.042654902 6375:0.0082120597 6409:0.0134223 6548:0.0160574 6601:0.0178441 6665:0.188153 6683:0.0117257 6695:0.0136283 6722:0.0268247 6749:0.0178441 6801:0.0097534703 6824:0.0086598201 6826:0.0123885 6885:0.065853402 6888:0.0160574 6925:0.022866299 6928:0.0068141301 6965:0.014516 6969:0.021327499 6986:0.036519501 7035:0.0247935 7042:0.0122117 7062:0.0246362 7080:0.0174566 7126:0.021327499 7156:0.071044199 7165:0.0123885 7172:0.31991199 7174:0.0142117 7197:0.0356711 7198:0.012574 7199:0.032857001 7205:0.0210869 7229:0.0284233 7246:0.047080498 7250:0.051555201 7254:0.023451401 7308:0.0077575999 7309:0.0120427 7323:0.0297968 7336:0.0152091 7345:0.016795101 7356:0.021327499 7370:0.0405358 7398:0.0131918 7427:0.0109079 7487:0.0142117 7488:0.0186924 7525:0.023153201 7526:0.0123885 7528:0.021327499 7529:0.037384801 7530:0.0284233 7562:0.035688199 7566:0.177192 7606:0.024777099 7729:0.0142117 7752:0.0067725801 7765:0.0338846 7775:0.012574 7794:0.042654902 7824:0.019786101 7846:0.023451401 7848:0.0115766 7850:0.0263837 7887:0.014516 7892:0.0160574 7905:0.042654902 8002:0.021327499 8020:0.019786101 8021:0.048172101 8027:0.0148467 8028:0.012574 8053:0.012769 8058:0.0136677 8075:0.012574 8143:0.0178441 8149:0.0142117 8224:0.022589801 8313:0.0156096 8349:0.0134223 8371:0.030706 8375:0.0123885 8379:0.012769 8383:0.017151 8387:0.0111615 8392:0.012769 8404:0.054092199 8407:0.014516 8451:0.0178441 8514:0.0123885 8520:0.021327499 8521:0.042654902 8546:0.017151 8569:0.0186924 8599:0.042654902 8609:0.36902699 8621:0.039572101 8693:0.021327499 8709:0.0160574 8714:0.0118809 8722:0.019786101 8733:0.0178441 8765:0.18870699 8768:0.053532399 8784:0.033130001 8793:0.021327499 8830:0.016565001 8917:0.041003 8923:0.0278599 8926:0.0178441 8938:0.021327499 8983:0.040941302 9109:0.019786101 9110:0.0304181 9114:0.032114699 9124:0.0089415498 9148:0.116128 9151:0.027335299 9154:0.0136677 9173:0.0083347 9229:0.021327499 9273:0.021327499 9326:0.034302 9358:0.0117257 9383:0.0195069 9442:0.021327499 9446:0.032140899 9483:0.0178441 9492:0.0259491 9505:0.022866299 9560:0.037630498 9593:0.0152091 9648:0.021327499 9682:0.044645902 9683:0.0278599 9688:0.0100352 9692:0.0142117 9710:0.021327499 9747:0.017151 9778:0.019786101 9792:0.039572101 9834:0.0038015801 9870:0.0102353 9873:0.021327499 9891:0.035688199 9895:0.0156096 9912:0.016565001 9947:0.035642698 9958:0.019786101 9966:0.0178441 10030:0.022322999 10056:0.017319599 10059:0.0148467 10102:0.113693 10103:0.034302 10112:0.033130001 10120:0.016565001 10123:0.021327499 10148:0.019786101 10196:0.0195069 10201:0.064805001 10203:0.25297901 10207:0.129492 10208:0.0175962 10214:0.017052799 10226:0.0214918 10236:0.041364402 10240:0.061216 10246:0.0134223 10255:0.097778603 10263:0.047883101 10267:0.022866299 10271:0.0111615 10275:0.021327499 10303:0.0152005 10311:0.039572101 10322:0.219632 10325:0.032010801 10355:0.0142117 10384:0.0152091 10414:0.021327499 10484:0.021327499 10491:0.024085401 10496:0.042654902 10629:0.0278599 10642:0.021327499 10667:0.0148467 10712:0.0114331 10718:0.0078662299 10729:0.014516 10749:0.0161865 10755:0.027046099 10756:0.0105568 10763:0.0304018 10777:0.019786101 10864:0.021327499 10881:0.0181813 10997:0.0148467 11014:0.079511598 11048:0.0098450799 11052:0.032469001 11054:0.066260003 11056:0.037384801 11059:0.0195069 11079:0.021113601 11113:0.041987699 11118:0.018030699 11121:0.0186518 11124:0.021327499 11126:0.0156231 11127:0.0104466 11132:0.14169 11133:0.019786101 11155:0.0405601 11189:0.0112949 11194:0.021035301 11196:0.0112949 11231:0.0085264202 11251:0.0076002702 11313:0.0111615 11318:0.0557197 11324:0.021327499 11328:0.021327499 11335:0.177728 11337:0.079329401 11339:0.0139299 11366:0.0136677 #
-0.40241511303984995 1:0.195427 2:0.092149399 3:0.0128283 4:0.021869799 213:0.036551401 226:0.032042801 230:0.0380891 265:0.032042801 281:0.049047999 286:0.055962201 356:0.035863198 408:0.016452501 485:0.015545 510:0.105892 588:0.0383301 677:0.0416159 731:0.0309173 739:0.032042801 751:0.223849 795:0.0151205 888:0.022902699 1034:0.0135118 1059:0.024260599 1128:0.063198797 1166:0.0380891 1247:0.055962201 1439:0.0393534 1449:0.0280395 1454:0.0329936 1455:0.140466 1471:0.022546399 1491:0.016644301 1516:0.223849 1517:0.055962201 1639:0.0372907 1688:0.055962201 1689:0.045003399 1720:0.025832999 1920:0.055962201 2027:0.049047999 2295:0.049047999 2311:0.055962201 2387:0.0292872 2572:0.023655901 2620:0.055962201 2672:0.0372907 2737:0.111924 2739:0.039907798 2749:0.0434657 2888:0.0372907 2993:0.018101601 3004:0.0246852 3143:0.023655901 3159:0.035219502 3163:0.109645 3207:0.051917601 3256:0.055962201 3373:0.0434657 3417:0.0421337 3519:0.039907798 3535:0.0253579 3539:0.079815596 3759:0.051917601 3981:0.152933 4080:0.020934001 4106:0.0147934 4140:0.0329936 4440:0.055962201 4570:0.040958799 4622:0.17195299 4637:0.055962201 4768:0.0421337 4994:0.051917601 5000:0.0231751 5019:0.053181902 5051:0.0421337 5193:0.0307677 5199:0.049047999 5241:0.055962201 5350:0.0361965 5372:0.046634998 5848:0.033505201 5876:0.032042801 6033:0.026079301 6042:0.036551401 6266:0.049047999 6270:0.023853401 6375:0.021547999 6580:0.034614701 6665:0.0246852 6684:0.040958799 6695:0.0178799 6749:0.046822101 6765:0.0253579 6824:0.0227229 6885:0.0493703 6928:0.0178799 6947:0.029999999 6986:0.019165101 7062:0.021547999 7156:0.0219313 7199:0.051729001 7205:0.129106 7246:0.0137263 7250:0.135278 7254:0.0307677 7308:0.020355601 7309:0.063198797 7318:0.0375957 7319:0.049047999 7466:0.027411301 7490:0.090006799 7525:0.121506 7526:0.032506902 7569:0.0542606 7666:0.045003399 7735:0.33561599 7752:0.017770899 7849:0.0434657 7944:0.046822101 8018:0.0421337 8027:0.0389571 8131:0.055962201 8152:0.027700501 8157:0.046822101 8215:0.040958799 8248:0.0372907 8365:0.025128599 8371:0.026857 8387:0.0292872 8404:0.047311801 8752:0.055962201 8929:0.051917601 9013:0.030376401 9078:0.055962201 9119:0.055962201 9131:0.068089098 9148:0.0380891 9173:0.021869799 9290:0.0372907 9318:0.051917601 9338:0.046822101 9351:0.036551401 9361:0.051917601 9560:0.0493703 9695:0.051917601 9761:0.040958799 9834:0.0099751595 9932:0.046822101 9947:0.062349699 10179:0.040958799 10196:0.025592601 10203:0.13697501 10208:0.138514 10236:0.043415301 10240:0.020078501 10255:0.0256566 10277:0.036551401 10322:0.113001 10491:0.031599399 10532:0.045003399 10750:0.029637201 10754:0.36002699 10755:0.023655901 10817:0.223849 10903:0.073102899 10997:0.077914201 11042:0.0434657 11052:0.238552 11079:0.027700501 11082:0.0329936 11092:0.0230857 11113:0.022034699 11139:0.030376401 11155:0.076019697 11184:0.055962201 11194:0.0137989 11231:0.0223729 11335:0.15545 11337:0.069385499 #
-0.25481046570685428 1:0.035914801 2:0.0060481601 3:0.00589384 4:0.040191501 5:0.090951398 120:0.0274875 121:0.0130045 147:0.014323 166:0.027566399 318:0.0171328 408:0.0302357 418:0.019357899 419:0.019969899 432:0.0153936 485:0.0071419999 510:0.077841699 559:0.0260091 591:0.0136165 612:0.020676401 618:0.023853 677:0.01912 731:0.0639209 739:0.0147218 740:0.018818101 806:0.023853 828:0.0257113 1005:0.016181201 1034:0.031039299 1051:0.097087398 1059:0.0111463 1081:0.0136165 1092:0.019969899 1122:0.0106922 1160:0.23229501 1163:0.023853 1166:0.052499 1187:0.0174997 1299:0.054466099 1392:0.190824 1439:0.018080501 1449:0.032206099 1455:0.064535797 1471:0.072511002 1475:0.34844199 1491:0.0229412 1542:0.019357899 1686:0.018335201 1977:0.020676401 1978:0.0118687 1980:0.0171328 2019:0.014518 2045:0.0257113 2060:0.014323 2139:0.0225346 2182:0.016793201 2249:0.018818101 2260:0.047706101 2353:0.117041 2360:0.0230901 2387:0.0134557 2433:0.029443501 2435:0.047706101 2513:0.129072 2537:0.016793201 2579:0.0282718 2725:0.0257113 2750:0.017898399 2771:0.0279123 2810:0.0225346 2881:0.10611 2906:0.0225346 2907:0.0225346 2908:0.10756 2993:0.0249498 3004:0.0226827 3108:0.014935 3122:0.023853 3143:0.0108685 3216:0.0257113 3348:0.023853 3535:0.023300899 3549:0.0582522 3552:0.0153936 3565:0.0159034 3615:0.021511899 3618:0.053695299 3685:0.019357899 3966:0.014518 3981:0.043239199 4033:0.019969899 4080:0.0096179098 4101:0.16477001 4106:0.040780101 4139:0.018335201 4299:0.0106065 4328:0.0246784 4331:0.019969899 4375:0.026600599 4393:0.017898399 4432:0.020676401 4583:0.0225346 4606:0.0092248498 4622:0.021546099 4658:0.019357899 4691:0.021918399 4723:0.014935 4729:0.016477 4806:0.0171328 4843:0.060741801 4845:0.0147218 4927:0.0225465 5000:0.021295199 5117:0.0085815899 5242:0.053822801 5244:0.0111463 5265:0.0221036 5350:0.055433702 5372:0.014284 5380:0.0257113 5553:0.0105224 5589:0.0141359 5667:0.0105224 5760:0.0257113 5818:0.0257113 5835:0.097693101 5846:0.0171328 5881:0.0128635 5967:0.0112428 6033:0.0119819 6042:0.083966002 6047:0.0225346 6076:0.0151586 6110:0.0514226 6112:0.0257113 6119:0.086047702 6124:0.018818101 6192:0.0118687 6212:0.018335201 6375:0.0297001 6376:0.018818101 6405:0.0108685 6482:0.01315 6567:0.020676401 6597:0.021511899 6626:0.095412202 6665:0.079389498 6676:0.0257113 6683:0.070679501 6684:0.018818101 6695:0.0492885 6765:0.023300899 6808:0.0108685 6850:0.079516903 6928:0.0082147596 6986:0.0088051902 7019:0.045069199 7035:0.0149449 7042:0.0147218 7062:0.0297001 7080:0.0526121 7083:0.016181201 7108:0.0171328 7156:0.050380699 7161:0.0123392 7197:0.086006403 7224:0.0225346 7230:0.025727 7246:0.025225701 7308:0.018704301 7309:0.014518 7345:0.020247299 7497:0.019357899 7525:0.0139562 7569:0.0124647 7587:0.018818101 7653:0.119819 7654:0.047706101 7752:0.0163293 7759:0.0514226 7995:0.014518 7998:0.0257113 8248:0.0171328 8287:0.023853 8351:0.051398501 8365:0.0115451 8371:0.0246784 8404:0.032605398 8407:0.0174997 8428:0.0413527 8430:0.023853 8431:0.0514226 8454:0.0225346 8462:0.0225346 8473:0.047706101 8477:0.023853 8507:0.090138398 8545:0.018335201 8572:0.016181201 8594:0.0225346 8634:0.021511899 8686:0.016477 8697:0.0257113 8877:0.20569 8983:0.0246784 9005:0.111324 9009:0.0413527 9106:0.01315 9124:0.021558899 9128:0.017898399 9219:0.106403 9310:0.0136165 9316:0.017898399 9363:0.025727 9367:0.014323 9429:0.023853 9430:0.090138398 9446:0.0290605 9462:0.0514226 9488:0.0096868305 9505:0.0137832 9561:0.023853 9663:0.034265701 9775:0.0257113 9834:0.00458299 9856:0.019969899 9870:0.0123392 10030:0.0403671 10110:0.46280301 10139:0.023853 10140:0.14311799 10142:0.044804901 10145:0.014323 10196:0.0117583 10197:0.014323 10201:0.0284093 10203:0.125864 10208:0.0318195 10214:0.041115999 10226:0.0259094 10236:0.0099733602 10255:0.041256901 10263:0.0115451 10276:0.0119819 10303:0.0274875 10322:0.129793 10347:0.0151586 10352:0.0151586 10364:0.0137832 10397:0.018335201 10550:0.0127267 10582:0.014518 10752:0.023853 10755:0.021736899 10756:0.0254534 10763:0.012217 10886:0.014518 11004:0.019357899 11092:0.021213001 11113:0.0303709 11118:0.021736899 11126:0.0094171697 11139:0.0139562 11155:0.055882402 11192:0.020676401 11194:0.0126795 11196:0.0136165 11230:0.027566399 11231:0.010279 11236:0.028646 11251:0.0091624903 11318:0.016793201 11335:0.171408 11337:0.247058 11340:0.032362498 11360:0.039939798 #
0.12859930020765475 1:0.130031 2:0.0246349 3:0.048012599 56:0.064770803 128:0.032385401 129:0.067112803 133:0.0228002 135:0.019446401 150:0.0248939 196:0.0237594 204:0.069816701 211:0.0248939 213:0.0228002 228:0.069816701 229:0.052233201 230:0.0237594 329:0.034908298 352:0.030595301 353:0.026282299 367:0.034908298 408:0.030788399 410:0.030595301 435:0.0121124 479:0.084217198 485:0.0290902 495:0.0180579 510:0.092475303 522:0.032385401 559:0.0176563 563:0.025549499 568:0.032385401 588:0.047819398 592:0.0219693 645:0.025549499 652:0.022370899 677:0.0086531099 731:0.019285699 734:0.0248939 739:0.019987799 741:0.030595301 770:0.0292069 795:0.037727699 865:0.279136 871:0.0228002 921:0.069816701 940:0.069816701 1014:0.097156197 1016:0.069816701 1034:0.101141 1037:0.030595301 1056:0.0146353 1087:0.0156748 1092:0.027113199 1122:0.0145168 1282:0.016587 1351:0.034908298 1352:0.034908298 1362:0.034908298 1439:0.036822099 1449:0.017490599 1471:0.0140641 1481:0.030595301 1491:0.041529801 1505:0.024300801 1566:0.0169234 1605:0.0292069 1659:0.032385401 1744:0.069816701 1782:0.030595301 1849:0.0219693 1863:0.034908298 1911:0.047518801 2000:0.044741798 2002:0.023261299 2012:0.069816701 2013:0.048601601 2056:0.030595301 2114:0.0292069 2131:0.076769501 2216:0.034908298 2227:0.026282299 2245:0.034908298 2267:0.026282299 2309:0.043184198 2313:0.056140501 2340:0.032385401 2427:0.032385401 2488:0.034908298 2562:0.044741798 2568:0.0237594 2585:0.020580901 2610:0.032385401 2616:0.034908298 2633:0.034908298 2636:0.0292069 2682:0.069816701 2723:0.034908298 2765:0.034908298 2771:0.0189483 2888:0.023261299 2889:0.030595301 2928:0.017853901 2962:0.027113199 2993:0.0112915 3004:0.046194602 3070:0.047518801 3143:0.0147562 3192:0.14036199 3208:0.034908298 3218:0.026282299 3224:0.023261299 3248:0.058413699 3254:0.065908 3290:0.052233201 3305:0.030595301 3347:0.20945001 3369:0.084217198 3370:0.030266801 3475:0.026282299 3535:0.015817899 3575:0.027113199 3604:0.034908298 3625:0.0237594 3633:0.0187135 3688:0.026282299 3724:0.0280724 3789:0.075025499 3790:0.034908298 3819:0.034908298 3886:0.0151334 3905:0.134413 3968:0.026882701 3981:0.088059202 4032:0.025549499 4039:0.116827 4106:0.0184558 4141:0.0280724 4149:0.032385401 4156:0.016587 4160:0.019446401 4332:0.0237594 4346:0.027113199 4357:0.0161142 4375:0.0180579 4406:0.034908298 4431:0.0172791 4552:0.034908298 4587:0.078844897 4622:0.068257503 4678:0.0172791 4700:0.030595301 4740:0.023261299 4843:0.068724602 4845:0.019987799 4856:0.0119549 4916:0.032385401 4918:0.0280724 4927:0.071426697 4984:0.0174649 5000:0.093965702 5019:0.016587 5074:0.034908298 5117:0.023302499 5123:0.030595301 5145:0.034908298 5227:0.0169234 5233:0.034908298 5317:0.032385401 5350:0.030105099 5372:0.0096967304 5384:0.015817899 5421:0.0280724 5486:0.021236399 5500:0.030595301 5540:0.024300801 5603:0.069816701 5669:0.0197112 5762:0.064770803 5770:0.091407999 5771:0.15551201 5781:0.032385401 5790:0.017853901 5823:0.032385401 5835:0.0189483 5907:0.034908298 5974:0.032385401 5986:0.021236399 6042:0.0228002 6076:0.041161701 6119:0.0292069 6162:0.069816701 6182:0.034908298 6186:0.037319899 6206:0.0561448 6241:0.034908298 6283:0.020580901 6285:0.032385401 6291:0.032385401 6354:0.0248939 6375:0.0134413 6408:0.0228002 6409:0.0219693 6416:0.0280724 6448:0.0187135 6482:0.017853901 6580:0.043184198 6627:0.034908298 6665:0.0153982 6719:0.034908298 6728:0.0292069 6801:0.015964299 6824:0.056696799 6826:0.020277301 6842:0.034908298 6885:0.030796399 6959:0.146034 7032:0.069816701 7035:0.040581498 7046:0.021592099 7080:0.0714316 7156:0.218887 7174:0.023261299 7197:0.033363201 7199:0.032267701 7225:0.027113199 7246:0.059935901 7250:0.0140641 7255:0.034908298 7265:0.17524099 7267:0.027113199 7269:0.0248939 7303:0.161927 7336:0.0248939 7337:0.034908298 7427:0.053561699 7429:0.016752999 7466:0.017098701 7566:0.0152644 7586:0.0561448 7648:0.0237594 7728:0.0219693 7745:0.032385401 7752:0.0221704 7777:0.024300801 7792:0.026282299 7797:0.034908298 7808:0.0280724 7846:0.019192399 7850:0.043184198 7940:0.026282299 7964:0.051098902 7973:0.032385401 8037:0.027113199 8050:0.0237594 8055:0.0280724 8058:0.067112803 8060:0.058413699 8072:0.022370899 8152:0.0172791 8185:0.0280724 8190:0.032385401 8247:0.034908298 8267:0.0378967 8285:0.034908298 8314:0.0292069 8366:0.0228002 8377:0.021592099 8387:0.0182689 8408:0.0237594 8508:0.034908298 8541:0.0228002 8645:0.015817899 8647:0.024300801 8683:0.027113199 8748:0.034908298 8756:0.034908298 8781:0.017853901 8828:0.022370899 8829:0.027113199 9068:0.0292069 9072:0.025549499 9073:0.058413699 9106:0.017853901 9116:0.0418 9126:0.0248939 9173:0.0136421 9187:0.016752999 9193:0.048601601 9198:0.058413699 9199:0.045600399 9224:0.0189483 9253:0.064770803 9262:0.0561448 9268:0.030595301 9300:0.020277301 9308:0.122779 9364:0.034908298 9428:0.019987799 9446:0.0131519 9459:0.034908298 9488:0.026303699 9554:0.0184872 9562:0.061190698 9563:0.032385401 9564:0.030595301 9574:0.030595301 9786:0.0292069 9834:0.0062223501 9837:0.12955301 9839:0.023261299 9841:0.0228002 9866:0.034908298 9870:0.016752999 9932:0.0292069 9933:0.077785604 9966:0.0292069 10063:0.034908298 10093:0.034908298 10116:0.0292069 10121:0.0228002 10125:0.027113199 10138:0.043184198 10142:0.040554501 10145:0.019446401 10154:0.0280724 10182:0.034908298 10185:0.034558199 10201:0.0289286 10203:0.30891001 10207:0.0264937 10212:0.0292069 10213:0.068400599 10226:0.0117258 10236:0.0135409 10240:0.050098501 10255:0.048012599 10271:0.0182689 10277:0.0228002 10313:0.102904 10322:0.105732 10342:0.034908298 10406:0.025549499 10446:0.034908298 10498:0.019446401 10501:0.032385401 10538:0.027113199 10544:0.0145168 10582:0.0591336 10606:0.034908298 10684:0.0292069 10685:0.0125246 10755:0.0147562 10756:0.0172791 10757:0.0237594 10761:0.0237594 10763:0.016587 10824:0.026282299 10853:0.0292069 10869:0.032385401 10903:0.0228002 10911:0.069816701 10962:0.020277301 11048:0.0161142 11049:0.024300801 11052:0.042515699 11092:0.028801 11113:0.054979701 11118:0.029512299 11125:0.043184198 11133:0.032385401 11155:0.066387899 11157:0.027113199 11194:0.017215 11222:0.034908298 11223:0.034908298 11230:0.0187135 11231:0.0279117 11234:0.0180579 11237:0.021236399 11239:0.016267899 11271:0.0133433 11307:0.034908298 11315:0.0174649 #
0.43748230342289918 120:0.090753801 229:0.0317549 313:0.039559901 408:0.074870601 469:0.084889501 485:0.0235803 510:0.0481885 588:0.029071599 589:0.068265997 612:0.068265997 677:0.042084899 731:0.0468987 781:0.059094299 795:0.068809099 1056:0.03559 1059:0.0368011 1072:0.0407396 1439:0.089543298 1449:0.0212666 1475:0.063912898 1491:0.0504958 1829:0.048606001 2101:0.065933399 2929:0.071024701 3004:0.037445098 3034:0.050824299 3204:0.041580401 3316:0.084889501 3370:0.0368011 3571:0.043912899 3572:0.0605365 3633:0.0455072 3705:0.068265997 3717:0.0744012 3745:0.071024701 3769:0.057777699 3835:0.043912899 3886:0.0368011 3891:0.078754202 3964:0.078754202 4423:0.0744012 4527:0.0466717 4606:0.0304572 4608:0.084889501 4622:0.047425002 4649:0.108802 4678:0.084038101 4682:0.084889501 4746:0.078754202 4843:0.033424601 4918:0.068265997 4927:0.024813499 5000:0.087886304 5211:0.084889501 5272:0.078754202 5273:0.068265997 5278:0.13653199 5280:0.0744012 5281:0.084889501 5350:0.0549067 5369:0.048606001 5372:0.0471607 5384:0.0384656 5553:0.034741201 5667:0.034741201 5675:0.169779 5805:0.071024701 5828:0.0525073 5900:0.055445202 6074:0.050048199 6405:0.035883799 6722:0.03559 6808:0.035883799 6812:0.084889501 6854:0.068265997 6859:0.062130701 6881:0.056566499 7001:0.041580401 7019:0.0744012 7035:0.0246714 7042:0.048606001 7049:0.065933399 7088:0.059094299 7131:0.0744012 7150:0.084889501 7156:0.0998035 7197:0.0608491 7198:0.050048199 7199:0.078468099 7246:0.020821599 7323:0.029650001 7345:0.033424601 7482:0.084889501 7576:0.068265997 7634:0.055445202 7656:0.204798 7776:0.084889501 7986:0.118189 8001:0.065933399 8050:0.057777699 8267:0.046078201 8274:0.0605365 8385:0.068265997 8393:0.078754202 8406:0.071024701 8557:0.071024701 8686:0.0544012 9013:0.0921565 9128:0.059094299 9233:0.050048199 9308:0.066349097 9446:0.0319825 9488:0.0319825 9491:0.084889501 9493:0.050048199 9515:0.078754202 9518:0.124261 9554:0.13487101 9738:0.048606001 9790:0.37278399 9791:0.157508 9812:0.097212002 9834:0.0151314 10002:0.27306399 10082:0.157508 10115:0.057777699 10190:0.062130701 10199:0.0466717 10201:0.16414499 10203:0.15983 10208:0.035018899 10226:0.028514599 10236:0.0329285 10255:0.058378 10263:0.076235399 10303:0.0302513 10305:0.049309898 10322:0.102847 10544:0.0353017 10590:0.071024701 10621:0.084889501 10718:0.031309899 10763:0.040336002 10767:0.0605365 10783:0.078754202 10820:0.063912898 10837:0.086833499 11113:0.033424601 11127:0.041580401 11132:0.066349097 11226:0.12741201 11306:0.078754202 11335:0.0235803 11337:0.0263128 #
1.5548871560940545 1:0.751881 2:0.081397898 3:0.046270601 6:0.044793401 48:0.0149166 121:0.0145849 135:0.016063601 166:0.0309164 202:0.021105001 220:0.017264299 229:0.0107867 240:0.024126099 268:0.12662999 336:0.020563399 480:0.034001399 481:0.021105001 483:0.076859497 485:0.0080099301 495:0.0149166 510:0.114583 554:0.024126099 581:0.0267518 588:0.0098752398 677:0.0142957 707:0.0288358 777:0.018147601 795:0.0233735 885:0.0267518 964:0.017836001 976:0.0288358 1034:0.020886799 1058:0.23068701 1075:0.0288358 1077:0.024126099 1087:0.038844202 1101:0.0288358 1131:0.0267518 1174:0.023189001 1235:0.0288358 1257:0.0138387 1388:0.086507499 1389:0.096504599 1402:0.0288358 1449:0.028896 1491:0.0085763596 1566:0.055918001 1592:0.0288358 1594:0.0288358 1612:0.0288358 1665:0.115343 1704:0.0267518 1930:0.102817 2024:0.020563399 2065:0.020563399 2078:0.0267518 2126:0.0223967 2131:0.079268701 2177:0.0288358 2213:0.020563399 2382:0.107007 2516:0.023189001 2585:0.017000699 2655:0.0288358 2690:0.048252299 2772:0.0267518 2814:0.0267518 2862:0.050546199 2953:0.0192149 2993:0.0093272701 3051:0.018834 3128:0.042209901 3133:0.0252731 3290:0.0107867 3370:0.0125008 3544:0.0288358 3652:0.0288358 3703:0.057671599 3774:0.0288358 3789:0.0247897 3810:0.017264299 3856:0.0192149 3952:0.018147601 3981:0.060617302 3999:0.023189001 4005:0.018479399 4034:0.024126099 4073:0.0252731 4259:0.0288358 4291:0.075819299 4303:0.018147601 4329:0.016063601 4456:0.0288358 4459:0.0288358 4520:0.0288358 4529:0.0267518 4602:0.0252731 4603:0.023189001 4622:0.016109601 4687:0.0252731 4691:0.012291 4773:0.057671599 4827:0.061690301 4843:0.0113539 4845:0.0165108 4902:0.048252299 4967:0.0217104 5000:0.077619798 5089:0.0288358 5104:0.0267518 5117:0.028873401 5183:0.0200735 5265:0.0123949 5350:0.0186511 5372:0.0080099301 5426:0.140515 5496:0.0267518 5613:0.0288358 5667:0.0118011 5673:0.0288358 5704:0.053503498 5709:0.0267518 5821:0.0252731 5858:0.139134 5930:0.0223967 6133:0.0941699 6134:0.096504599 6166:0.0147481 6186:0.041103799 6270:0.012291 6375:0.0111031 6405:0.0121892 6427:0.057671599 6464:0.021105001 6470:0.0288358 6502:0.0288358 6605:0.0200735 6707:0.060220599 6746:0.021105001 6801:0.0131872 6824:0.0117085 6986:0.0098752398 7035:0.0083805304 7054:0.0217104 7079:0.072378397 7080:0.023602299 7108:0.0192149 7156:0.056503199 7197:0.0413392 7219:0.0200735 7246:0.0141456 7250:0.046470199 7261:0.021105001 7262:0.0267518 7274:0.0267518 7349:0.0288358 7364:0.0252731 7446:0.0267518 7471:0.017264299 7476:0.057671599 7530:0.0192149 7633:0.021105001 7723:0.0145849 7725:0.0252731 7752:0.0183137 7850:0.035672098 7888:0.0175422 7943:0.0288358 7957:0.0288358 8025:0.024126099 8070:0.027959 8152:0.0142733 8236:0.0267518 8349:0.018147601 8392:0.017264299 8410:0.0223967 8510:0.019626301 8512:0.023189001 8514:0.117249 8632:0.017264299 8637:0.0309164 8688:0.0267518 8855:0.0267518 9173:0.0112689 9175:0.0334998 9187:0.0138387 9308:0.0112689 9357:0.0288358 9358:0.031707499 9367:0.016063601 9383:0.0263744 9395:0.0288358 9699:0.0288358 9774:0.0288358 9811:0.019626301 9812:0.033021599 9834:0.0102799 9857:0.0267518 10021:0.030181799 10056:0.0117085 10087:0.0267518 10138:0.017836001 10201:0.0159309 10203:0.108584 10226:0.00968601 10255:0.019830201 10289:0.041126799 10322:0.058226202 10430:0.0267518 10454:0.056501899 10486:0.0252731 10507:0.0200735 10544:0.0119915 10588:0.0267518 10685:0.031037699 10729:0.019626301 10781:0.0927561 10786:0.0252731 10813:0.0267518 10853:0.024126099 10855:0.018834 10889:0.0288358 10943:0.0288358 10980:0.086507499 10983:0.050546199 11014:0.0268759 11052:0.0087799504 11076:0.041126799 11083:0.0267518 11155:0.031336699 11194:0.0142204 11226:0.0144267 11237:0.0175422 11273:0.0267518 11335:0.024029801 11337:0.0089381197 11386:0.0288358 11387:0.0288358 #
0.32415913719921668 3:0.0101412 121:0.0223762 139:0.041042499 140:0.082085103 195:0.028351 208:0.044239901 239:0.148057 333:0.035576601 427:0.052164901 435:0.0153502 446:0.083526298 471:0.158922 472:0.035576601 485:0.0122888 495:0.022885101 510:0.125567 592:0.027842101 612:0.035576601 677:0.0109662 678:0.0231524 680:0.085053101 731:0.109985 795:0.0239064 901:0.088479802 914:0.088479802 924:0.0214474 1034:0.042725999 1038:0.044239901 1059:0.0191788 1130:0.085789397 1187:0.0301107 1268:0.111043 1275:0.035576601 1282:0.021020999 1357:0.064758502 1439:0.0155551 1449:0.022166099 1471:0.017823599 1492:0.210775 1493:0.398159 1494:0.13271999 1566:0.0214474 1609:0.044239901 1639:0.0294795 1643:0.031548399 1650:0.0307968 1697:0.123128 1698:0.038773999 1701:0.037014298 1817:0.023429099 2003:0.041042499 2239:0.027842101 2243:0.044239901 2256:0.038773999 2263:0.123128 2591:0.033307999 2815:0.142306 2843:0.033307999 2844:0.034361001 2925:0.071153201 2928:0.022626501 2952:0.034361001 2953:0.058958899 2993:0.042929702 3046:0.038773999 3237:0.041042499 3287:0.035576601 3370:0.038357601 3378:0.025697701 3486:0.0214474 3571:0.022885101 3646:0.035576601 3705:0.071153201 3709:0.044239901 3733:0.0269133 3797:0.0567021 3835:0.022885101 3868:0.034361001 3922:0.044239901 3975:0.041042499 3981:0.074399203 3995:0.038773999 4106:0.0116946 4109:0.041042499 4133:0.044239901 4236:0.049960699 4245:0.037014298 4265:0.038773999 4276:0.044239901 4303:0.027842101 4491:0.033307999 4565:0.038773999 4606:0.0158727 4622:0.061788499 4629:0.088479802 4640:0.025697701 4649:0.0567021 4663:0.038773999 4740:0.0294795 4770:0.088479802 4837:0.0301107 4843:0.0174192 4927:0.0129315 5000:0.128245 5022:0.0187007 5227:0.0214474 5325:0.041042499 5350:0.10492 5372:0.0614441 5384:0.020046201 5589:0.0243228 5667:0.0181053 5790:0.022626501 5797:0.044239901 5835:0.024013501 5868:0.044239901 5946:0.032634102 6043:0.044239901 6069:0.075992599 6109:0.058958899 6205:0.041042499 6214:0.017686499 6375:0.034068801 6465:0.034361001 6476:0.035576601 6478:0.13271999 6522:0.066616103 6555:0.0307968 6695:0.084807903 6722:0.092738003 6801:0.0202318 6928:0.0141347 7026:0.037014298 7035:0.0385722 7037:0.0223762 7076:0.205213 7098:0.0567021 7104:0.044239901 7121:0.041042499 7124:0.041042499 7156:0.19938 7174:0.0294795 7197:0.0105704 7199:0.0136311 7205:0.0145803 7217:0.049289498 7246:0.0108511 7249:0.041042499 7250:0.017823599 7308:0.016091701 7309:0.049960699 7323:0.030904001 7490:0.071153201 7590:0.038773999 7640:0.044239901 7777:0.0307968 8107:0.041042499 8237:0.044239901 8279:0.033307999 8315:0.041042499 8316:0.099924102 8347:0.044239901 8352:0.055684201 8365:0.0198649 8757:0.044239901 8775:0.044239901 8781:0.022626501 9130:0.066616103 9131:0.0269133 9148:0.0301107 9300:0.051395401 9351:0.028895101 9446:0.050002702 9488:0.050002702 9493:0.026082501 9510:0.044239901 9511:0.063096799 9518:0.064758502 9523:0.034361001 9537:0.0307968 9554:0.023429099 9604:0.035576601 9663:0.0294795 9728:0.088479802 9729:0.044239901 9730:0.044239901 9768:0.035576601 9796:0.088479802 9834:0.0078856796 9870:0.021231299 10003:0.038773999 10196:0.080927096 10201:0.085543901 10203:0.27487299 10207:0.016788 10208:0.01825 10213:0.028895101 10214:0.017686499 10226:0.0148603 10240:0.079363301 10247:0.024980299 10255:0.050705899 10263:0.0198649 10264:0.028895101 10290:0.0294795 10322:0.089330599 10552:0.0294795 10733:0.088479802 10749:0.15109199 10828:0.037014298 10971:0.074028701 10981:0.063096799 11014:0.0206165 11091:0.032379199 11113:0.0174192 11118:0.0187007 11127:0.0216695 11132:0.034577601 11145:0.088479802 11186:0.037014298 11194:0.076359101 11230:0.047431901 11264:0.044239901 11333:0.024644701 #
0.25056754461337583 1:0.015842101 2:0.0177857 3:0.045063 116:0.00569255 127:0.0075608799 165:0.0066267201 166:0.0243192 171:0.00553382 182:0.0132534 185:0.0066267201 192:0.0075608799 195:0.0048453701 196:0.0051461002 243:0.0151218 244:0.0075608799 246:0.0453653 247:0.0075608799 258:0.0070144301 275:0.0132534 278:0.0066267201 299:0.0070144301 318:0.0050382302 336:0.0053918199 337:0.0075608799 350:0.0050382302 353:0.00569255 361:0.0075608799 408:0.0288969 416:0.0187067 419:0.0058725202 420:0.0131757 435:0.0157407 443:0.00569255 446:0.0095167803 451:0.0040532001 460:0.0075608799 461:0.0070144301 464:0.0070144301 476:0.0075608799 485:0.044105001 493:0.0121605 494:0.0070144301 495:0.035200901 510:0.108731 530:0.0226826 559:0.0076484499 560:0.0075608799 564:0.0075608799 589:0.0121605 597:0.0140289 613:0.0053918199 615:0.0166014 619:0.0110676 625:0.0070144301 633:0.0058725202 641:0.0140301 643:0.0051461002 660:0.0066267201 677:0.031861302 688:0.0331336 689:0.0070144301 690:0.017077699 691:0.0066267201 692:0.0060802698 696:0.0060802698 697:0.0075608799 731:0.066834196 737:0.0063259802 745:0.0140289 749:0.0075608799 774:0.0058725202 775:0.0060802698 777:0.0047583901 783:0.0058725202 784:0.0060802698 785:0.0060802698 786:0.0060802698 795:0.0224717 810:0.0058725202 812:0.00569255 830:0.0075608799 865:0.0050382302 887:0.0070144301 888:0.0030943099 939:0.0070144301 974:0.0063259802 980:0.021043301 989:0.0075608799 990:0.0140289 995:0.0431346 1034:0.032859702 1047:0.0114727 1059:0.00327778 1120:0.0075608799 1130:0.0109965 1171:0.0075608799 1172:0.068047903 1173:0.0151218 1257:0.039914198 1278:0.0151218 1282:0.032333601 1289:0.011745 1292:0.049100999 1344:0.0070144301 1409:0.035072099 1439:0.0106338 1443:0.0089153098 1449:0.0644015 1471:0.0091385199 1473:0.038763002 1478:0.0105267 1491:0.0202388 1505:0.0105267 1566:0.0036654901 1643:0.0053918199 1650:0.00526337 1655:0.037955899 1675:0.0063259802 1693:0.048642099 1694:0.0132534 1731:0.264631 1756:0.075911798 1767:0.0243211 1811:0.0066267201 1819:0.0070144301 1820:0.0113851 1842:0.106027 1843:0.038736701 1844:0.0075608799 1845:0.012652 1849:0.0047583901 1853:0.0060802698 1856:0.0132534 1883:0.0151218 1886:0.037804399 1987:0.0063259802 1990:0.0075608799 1991:0.0110676 2002:0.0050382302 2024:0.0053918199 2056:0.0066267201 2081:0.0075608799 2111:0.0075608799 2123:0.012652 2124:0.0070144301 2125:0.0075608799 2126:0.0058725202 2175:0.0066267201 2179:0.0070144301 2204:0.0066267201 2212:0.00553382 2227:0.0113851 2229:0.0060802698 2230:0.00526337 2239:0.0095167803 2240:0.0113851 2259:0.0151218 2262:0.0070144301 2267:0.0113851 2270:0.0060802698 2337:0.0075608799 2355:0.0070144301 2360:0.0101851 2368:0.0075608799 2423:0.00526337 2424:0.0066267201 2456:0.0058725202 2470:0.0075608799 2531:0.0075608799 2557:0.0047583901 2591:0.00569255 2640:0.0060802698 2660:0.0075608799 2726:0.0442819 2729:0.0140289 2730:0.0070144301 2731:0.0066267201 2739:0.0053918199 2773:0.0070144301 2775:0.0075608799 2776:0.0075608799 2830:0.0083138496 2844:0.0058725202 2845:0.0104706 2881:0.00445766 2926:0.019880099 2927:0.0075608799 2928:0.011601 2930:0.0070144301 2940:0.019880099 2947:0.0166014 2948:0.0060802698 2953:0.0050382302 2954:0.0070144301 2956:0.0070144301 2966:0.0075608799 2967:0.0140289 2993:0.0097826105 3004:0.0133405 3015:0.00526337 3044:0.0066267201 3050:0.0907306 3102:0.017617499 3108:0.0087837996 3148:0.0053918199 3178:0.034155302 3179:0.0226826 3181:0.00526337 3218:0.028462799 3233:0.0075608799 3246:0.011601 3258:0.012652 3259:0.017077699 3286:0.0043918998 3300:0.0151218 3310:0.0075608799 3370:0.016388901 3425:0.0075608799 3438:0.0075608799 3488:0.0070144301 3535:0.0068520498 3549:0.0102781 3552:0.0090535702 3555:0.0100765 3569:0.0070144301 3571:0.0117336 3594:0.0051461002 3611:0.0075608799 3617:0.0453653 3625:0.0051461002 3648:0.011745 3675:0.0058725202 3683:0.0066267201 3686:0.00569255 3688:0.00569255 3697:0.0063259802 3706:0.0050382302 3733:0.0045996499 3755:0.0075608799 3757:0.0058725202 3786:0.0075608799 3797:0.0145361 3800:0.0047583901 3865:0.00569255 3866:0.0151218 3886:0.00327778 3889:0.0060802698 3905:0.0058225798 3949:0.0075608799 3952:0.0095167803 3968:0.0029112899 3969:0.0066267201 3981:0.0381459 3983:0.039760299 3985:0.0066267201 4004:0.0100943 4012:0.00553382 4021:0.0045996499 4024:0.0070144301 4038:0.0087837996 4042:0.0084238797 4055:0.00553382 4058:0.0151218 4083:0.0075608799 4087:0.0075608799 4090:0.026316799 4106:0.0199869 4109:0.035072099 4110:0.143657 4112:0.0075608799 4137:0.0075608799 4138:0.0035576201 4139:0.0053918199 4142:0.00553382 4156:0.0107779 4199:0.0066267201 4229:0.0075608799 4236:0.0042693 4237:0.0070144301 4247:0.0182408 4248:0.0075608799 4249:0.018977899 4290:0.031580199 4329:0.0084238797 4391:0.0132534 4405:0.0084238797 4545:0.0058725202 4606:0.0271274 4612:0.0075608799 4615:0.0151218 4622:0.021120099 4626:0.0049383501 4641:0.0053918199 4645:0.0075608799 4664:0.0151218 4688:0.0151147 4691:0.00322276 4774:0.0151218 4777:0.0058725202 4816:0.0075608799 4819:0.0058725202 4825:0.0110676 4845:0.0173168 4890:0.0360227 4915:0.0075608799 4916:0.0070144301 4917:0.0075608799 4918:0.0060802698 4927:0.0088402703 4932:0.00526337 4933:0.0058725202 4953:0.0070144301 4978:0.0058725202 4984:0.0037827599 5000:0.125245 5019:0.0035926199 5052:0.0331336 5053:0.0561154 5077:0.0102922 5082:0.0070144301 5133:0.018977899 5135:0.0093533704 5156:0.00569255 5163:0.00569255 5175:0.0075608799 5220:0.026506901 5229:0.0058725202 5231:0.00526337 5238:0.0140289 5248:0.0276691 5249:0.021043301 5250:0.0070144301 5254:0.052926201 5255:0.0070144301 5265:0.0032499901 5273:0.0060802698 5274:0.0063259802 5275:0.0132534 5277:0.0050382302 5284:0.0075608799 5295:0.012652 5324:0.0140289 5332:0.0075608799 5333:0.0075608799 5334:0.0075608799 5335:0.0075608799 5336:0.0075608799 5350:0.068465501 5352:0.0075608799 5372:0.033603799 5379:0.0066267201 5381:0.0113851 5384:0.0308342 5430:0.0058725202 5516:0.0049383501 5610:0.0151218 5661:0.0070144301 5667:0.0061886199 5736:0.0215673 5746:0.0066267201 5758:0.0075608799 5770:0.0282833 5771:0.097305603 5790:0.0038670199 5820:0.00569255 5821:0.0066267201 5837:0.0060802698 5881:0.00756551 5891:0.0045996499 5914:0.083169699 5917:0.012652 5925:0.0066267201 5926:0.019880099 5930:0.011745 5978:0.0113483 5982:0.0089311302 5992:0.031629901 6004:0.0070144301 6008:0.00595409 6025:0.0049383501 6044:0.0075608799 6066:0.0047583901 6111:0.0075608799 6166:0.00773403 6181:0.0151218 6184:0.0070144301 6214:0.00604547 6245:0.084173203 6316:0.0075608799 6317:0.0140289 6339:0.012652 6340:0.0063259802 6348:0.0070144301 6361:0.021043301 6375:0.0058225798 6405:0.0063921399 6438:0.037804399 6476:0.0060802698 6528:0.0093533704 6566:0.0063259802 6581:0.0075608799 6588:0.0075608799 6605:0.015790099 6610:0.0070144301 6629:0.0113851 6640:0.0070144301 6643:0.011745 6655:0.0075608799 6695:0.0048313998 6700:0.0182408 6704:0.0066267201 6707:0.015790099 6708:0.0075608799 6722:0.0031699 6744:0.033917598 6746:0.17154799 6748:0.0063259802 6751:0.00569255 6755:0.0113851 6779:0.11621 6781:0.0075608799 6800:0.0075608799 6801:0.034577399 6805:0.0070144301 6857:0.0046766899 6880:0.0063259802 6885:0.0066702701 6888:0.0113851 6891:0.0132534 6905:0.0140289 6926:0.0070144301 6928:0.0024156999 6975:0.0151218 6986:0.025893301 7001:0.0148138 7013:0.00526337 7025:0.0075608799 7035:0.0417508 7037:0.0038242301 7038:0.0066267201 7040:0.0107836 7053:0.00569255 7062:0.0029112899 7064:0.0253039 7066:0.012652 7079:0.018977899 7080:0.0030943099 7108:0.0050382302 7115:0.0075608799 7120:0.0070144301 7124:0.021043301 7125:0.0070144301 7139:0.0075608799 7140:0.018977899 7156:0.13482 7174:0.0050382302 7190:0.0075608799 7191:0.0151218 7192:0.0151218 7193:0.0151218 7194:0.0151218 7197:0.0144524 7199:0.0093185902 7201:0.0151218 7205:0.022426801 7208:0.0075608799 7222:0.0060802698 7242:0.0431346 7246:0.0148362 7250:0.0030461701 7251:0.00526337 7253:0.0140289 7280:0.0066267201 7308:0.0055003501 7309:0.0042693 7310:0.0063259802 7323:0.0184859 7329:0.0070144301 7336:0.0053918199 7339:0.0063259802 7364:0.125908 7366:0.00553382 7376:0.0113851 7398:0.0046766899 7404:0.0132534 7412:0.0075608799 7436:0.0140289 7442:0.0066267201 7443:0.0070144301 7466:0.00740691 7477:0.133274 7478:0.0442819 7595:0.0075608799 7605:0.0128079 7630:0.018977899 7633:0.00553382 7638:0.0070144301 7660:0.0070144301 7669:0.0364816 7670:0.119544 7723:0.019121099 7777:0.00526337 7784:0.039760299 7790:0.049100999 7831:0.0246244 7835:0.0050382302 7839:0.0075608799 7845:0.0058725202 7846:0.0124708 7848:0.0041040699 7875:0.0075608799 7876:0.0075608799 7917:0.0070144301 7928:0.0140289 7929:0.0070144301 7939:0.0075608799 7961:0.00569255 7962:0.0085386001 7965:0.0048453701 7970:0.0166014 7974:0.0093533704 7993:0.0060802698 8007:0.0243211 8009:0.0060802698 8028:0.013373 8079:0.0075608799 8088:0.0075608799 8114:0.0063259802 8115:0.0075608799 8116:0.0113851 8122:0.011745 8127:0.018977899 8156:0.00569255 8191:0.00526337 8215:0.00553382 8236:0.0070144301 8249:0.0140289 8250:0.049100999 8251:0.0226826 8252:0.037804399 8267:0.0492488 8270:0.058668099 8335:0.0100765 8352:0.0047583901 8373:0.0058725202 8375:0.052702799 8376:0.021043301 8404:0.00319607 8437:0.0132534 8455:0.0053918199 8467:0.00526337 8479:0.0070144301 8528:0.0151218 8536:0.0063259802 8541:0.0098767001 8565:0.0066267201 8586:0.0075608799 8602:0.0060802698 8616:0.0107836 8622:0.0066267201 8636:0.0050382302 8638:0.0140289 8640:0.0107836 8645:0.00342603 8668:0.0066267201 8672:0.0166014 8676:0.0070144301 8683:0.0058725202 8695:0.0075608799 8696:0.0053918199 8699:0.0121605 8727:0.0075608799 8730:0.0050382302 8731:0.0060802698 8840:0.0070144301 8906:0.0226826 8915:0.0140289 8917:0.0048453701 8918:0.0070144301 8956:0.0075608799 9000:0.0063259802 9001:0.0075608799 9002:0.030243499 9039:0.0075608799 9072:0.044270501 9106:0.00773403 9131:0.0091993101 9145:0.0045996499 9146:0.0151218 9157:0.0045996499 9161:0.00445766 9184:0.0058725202 9188:0.011745 9189:0.00569255 9193:0.00526337 9207:0.00445766 9267:0.0197534 9274:0.0075608799 9275:0.0075608799 9283:0.0070144301 9304:0.0075608799 9308:0.0029547701 9316:0.00526337 9351:0.0049383501 9352:0.0075608799 9363:0.0037827599 9367:0.0084238797 9374:0.0251911 9383:0.0069154799 9387:0.120974 9389:0.00569255 9446:0.00284859 9488:0.00284859 9557:0.0151218 9558:0.0075608799 9559:0.037804399 9575:0.0070144301 9704:0.0227702 9756:0.0049383501 9771:0.0066267201 9777:0.011745 9804:0.032736801 9805:0.00553382 9811:0.0051461002 9816:0.0042119399 9823:0.0051461002 9834:0.0094339903 9835:0.0058725202 9870:0.021771399 9884:0.018977899 9914:0.0453653 9950:0.0066267201 9958:0.0070144301 10015:0.0070144301 10016:0.0095167803 10021:0.0079137897 10056:0.0030700299 10058:0.00553382 10059:0.00526337 10196:0.0069154799 10201:0.064745702 10203:0.160863 10207:0.0028691699 10208:0.0062380801 10213:0.0049383501 10214:0.00604547 10224:0.0287285 10226:0.00761915 10228:0.0140289 10230:0.037955899 10236:0.0058657001 10240:0.0135637 10244:0.0095167803 10246:0.0047583901 10255:0.0155987 10263:0.0033950401 10276:0.0035234899 10290:0.050382301 10303:0.0080832001 10322:0.105343 10347:0.00445766 10354:0.0151218 10356:0.0075608799 10392:0.0226826 10435:0.0075608799 10448:0.0075608799 10472:0.0226826 10473:0.0075608799 10524:0.0047583901 10544:0.0094326902 10550:0.0112276 10551:0.0132534 10556:0.125908 10557:0.0060802698 10558:0.0107836 10561:0.0075608799 10590:0.0063259802 10617:0.0042693 10619:0.0140289 10620:0.0075608799 10636:0.0066267201 10656:0.0075608799 10670:0.0110676 10672:0.0151218 10685:0.0108509 10689:0.0066267201 10702:0.0151218 10718:0.0027886799 10749:0.0028691699 10755:0.0127843 10756:0.0149701 10762:0.0098767001 10763:0.0071852501 10794:0.0075608799 10818:0.0070144301 10820:0.00569255 10828:0.0063259802 10845:0.0151218 10846:0.0075608799 10854:0.0226826 10919:0.0070144301 10922:0.0140289 10967:0.0075608799 10974:0.018977899 10983:0.0132534 11013:0.0075608799 11014:0.0070469901 11032:0.0035576201 11048:0.0034902201 11052:0.00230214 11092:0.00311904 11096:0.030243499 11097:0.0075608799 11099:0.0226826 11111:0.67055398 11113:0.0208393 11114:0.00553382 11118:0.022372499 11121:0.0099184504 11122:0.0140289 11125:0.0046766899 11126:0.096925199 11127:0.0111104 11132:0.029547701 11134:0.0105267 11136:0.0596404 11142:0.0049383501 11155:0.0102708 11161:0.0075608799 11194:0.039150801 11196:0.0120126 11206:0.0075608799 11226:0.030262001 11230:0.0689044 11231:0.0030227299 11248:0.0066267201 11251:0.0026944 11266:0.0100765 11290:0.0075608799 11318:0.0395068 11322:0.0280577 11333:0.0042119399 11335:0.0147017 #
0.66782583119689354 1:0.54277998 2:0.057062499 3:0.040160201 58:0.0134765 76:0.0134765 108:0.0134765 109:0.0134765 110:0.080859303 111:0.0134765 115:0.0134765 119:0.0134765 130:0.026953099 131:0.0134765 156:0.0134765 166:0.0072244499 212:0.0134765 218:0.0134765 229:0.0151237 300:0.0108375 319:0.0134765 323:0.0108375 345:0.026953099 351:0.026953099 353:0.0101464 356:0.0086364103 359:0.0134765 364:0.0134765 395:0.0134765 399:0.037507702 420:0.0078281499 435:0.00467605 451:0.0144489 452:0.0132021 478:0.0134765 485:0.0074869501 490:0.037507702 491:0.0134765 495:0.0069713499 510:0.045900699 519:0.0134765 532:0.0134765 554:0.0112755 628:0.0086364103 641:0.0083357496 643:0.0091724396 659:0.0134765 673:0.0250051 677:0.0100217 731:0.0074453498 770:0.0112755 777:0.0084813796 795:0.014565 850:0.0134765 865:0.044900801 871:0.140834 874:0.129926 876:0.053906199 877:0.0134765 904:0.0134765 937:0.0134765 958:0.0134765 962:0.0134765 964:0.016671499 995:0.028831201 1034:0.0325385 1074:0.026953099 1078:0.0134765 1088:0.112523 1098:0.0134765 1130:0.032666899 1158:0.0134765 1233:0.0118115 1287:0.0134765 1319:0.0491907 1431:0.0112755 1433:0.0125026 1439:0.0047384501 1449:0.037137799 1465:0.0134765 1471:0.00542951 1490:0.070868902 1529:0.0134765 1530:0.0091724396 1562:0.0134765 1563:0.0134765 1564:0.026953099 1601:0.0134765 1620:0.0083357496 1624:0.0134765 1644:0.0264064 1672:0.067382701 1706:0.0104672 1708:0.0404296 1719:0.0134765 1766:0.0125026 1781:0.0134765 1783:0.0134765 1829:0.0077164001 1830:0.0134765 1831:0.0112755 1835:0.0118115 1909:0.0134765 1919:0.0134765 1929:0.067382701 1931:0.0134765 1935:0.0096103996 1936:0.0134765 1942:0.0134765 1946:0.0118115 1950:0.0125026 1956:0.0134765 1960:0.026953099 1978:0.012442 1995:0.0134765 2000:0.0172728 2011:0.0225509 2013:0.0093814498 2019:0.0152192 2029:0.021675 2106:0.0101464 2132:0.0112755 2150:0.0134765 2151:0.026953099 2160:0.026953099 2163:0.026953099 2212:0.0098634996 2223:0.0060513401 2303:0.0134765 2313:0.0144489 2331:0.019726999 2360:0.0121027 2440:0.0134765 2479:0.0134765 2526:0.0112755 2537:0.0088021401 2548:0.0134765 2549:0.023623001 2579:0.25932601 2585:0.0079453504 2684:0.0101464 2709:0.0404296 2710:0.0118115 2724:0.0104672 2735:0.14658099 2736:0.026953099 2781:0.0134765 2801:0.0134765 2802:0.0134765 2869:0.0134765 2874:0.0091724396 2881:0.0079453504 2909:0.0118115 2929:0.0112755 2971:0.0134765 2976:0.0104672 2993:0.0043591401 2997:0.0404296 2999:0.020292901 3000:0.0134765 3004:0.0059445598 3038:0.0404296 3058:0.0134765 3101:0.0134765 3102:0.052336 3136:0.0134765 3143:0.0113934 3160:0.0108375 3173:0.0134765 3176:0.0134765 3177:0.0134765 3189:0.0134765 3234:0.0134765 3246:0.0137852 3248:0.0112755 3251:0.026953099 3272:0.0134765 3281:0.026953099 3290:0.0050412202 3297:0.0134765 3312:0.026953099 3315:0.0134765 3330:0.032512501 3337:0.0098634996 3370:0.0058423202 3388:0.0125026 3389:0.026953099 3410:0.0134765 3413:0.0134765 3448:0.0134765 3476:0.0125026 3485:0.146541 3486:0.0065333899 3503:0.0134765 3520:0.0093814498 3528:0.0108375 3548:0.0134765 3597:0.0134765 3603:0.0134765 3614:0.0134765 3661:0.0125026 3676:0.0108375 3678:0.0134765 3692:0.0112755 3696:0.0118115 3697:0.101479 3700:0.026953099 3738:0.026953099 3749:0.0134765 3775:0.0134765 3789:0.028964 3817:0.0405857 3836:0.0404296 3843:0.0154328 3872:0.075015299 3874:0.080859303 3879:0.0134765 3905:0.00518909 3928:0.0134765 3929:0.0250051 3945:0.0134765 3952:0.0084813796 3956:0.0134765 3966:0.0076096202 3968:0.020756399 3972:0.0134765 3981:0.028329801 4004:0.0179921 4012:0.0098634996 4037:0.0134765 4043:0.0134765 4048:0.0134765 4062:0.023623001 4071:0.0125026 4086:0.0125026 4090:0.0187629 4098:0.017960301 4106:0.0142499 4120:0.0134765 4121:0.0134765 4123:0.0134765 4160:0.0075073801 4189:0.0134765 4196:0.0112755 4216:0.0134765 4236:0.0076096202 4260:0.0134765 4296:0.0404296 4354:0.026953099 4355:0.0134765 4356:0.0134765 4417:0.0125026 4431:0.0066706901 4448:0.035434499 4449:0.0134765 4467:0.0080685597 4515:0.031401601 4528:0.0134765 4536:0.0404296 4555:0.080859303 4606:0.0096703898 4611:0.0134765 4620:0.0134765 4622:0.0075289099 4668:0.0073151099 4728:0.021675 4811:0.0134765 4827:0.048052002 4835:0.0080685597 4836:0.0073151099 4884:0.0134765 5000:0.0139523 5019:0.00640351 5041:0.0134765 5047:0.0134765 5059:0.0134765 5071:0.0125026 5085:0.0134765 5117:0.044980299 5119:0.035434499 5120:0.0125026 5130:0.0134765 5135:0.0083357496 5148:0.0134765 5157:0.0134765 5182:0.0125026 5206:0.0134765 5227:0.0130668 5242:0.0070527899 5308:0.020934399 5339:0.0134765 5350:0.0087166596 5357:0.0112755 5358:0.0134765 5384:0.0061065699 5402:0.0134765 5428:0.053906199 5442:0.04335 5513:0.0108375 5514:0.0134765 5515:0.0134765 5568:0.0134765 5569:0.0134765 5607:0.0134765 5626:0.0134765 5685:0.0134765 5722:0.14205 5729:0.0134765 5730:0.0404296 5732:0.0134765 5750:0.0134765 5751:0.0134765 5754:0.0134765 5757:0.0134765 5759:0.0134765 5771:0.0066706901 5778:0.026953099 5784:0.148242 5799:0.0134765 5806:0.0134765 5808:0.026953099 5820:0.101464 5841:0.0118115 5861:0.026953099 5875:0.035434499 5889:0.0134765 5901:0.0134765 5953:0.0134765 5959:0.0074093202 5982:0.0053062998 5984:0.023623001 6120:0.026953099 6133:0.0264064 6134:0.0112755 6183:0.026953099 6186:0.0048025101 6214:0.00538773 6236:0.0096103996 6270:0.0057442598 6295:0.0112755 6296:0.026953099 6324:0.0125026 6421:0.0118115 6422:0.0134765 6432:0.026953099 6496:0.0125026 6497:0.0088021401 6505:0.026953099 6514:0.0404296 6554:0.080859303 6560:0.0404296 6568:0.026953099 6580:0.0083357496 6584:0.0134765 6625:0.0134765 6632:0.0101464 6646:0.0134765 6650:0.0134765 6651:0.0134765 6686:0.053906199 6753:0.0108375 6763:0.0134765 6764:0.0134765 6802:0.0134765 6813:0.080859303 6820:0.0134765 6824:0.0109441 6828:0.026953099 6861:0.0134765 6862:0.0134765 6876:0.0101464 6889:0.0134765 6913:0.0134765 6921:0.0134765 6956:0.0093814498 6962:0.0134765 6965:0.0091724396 6968:0.035434499 6970:0.026953099 7031:0.0134765 7035:0.01175 7058:0.044900801 7059:0.0134765 7060:0.0125026 7080:0.016545899 7089:0.0134765 7103:0.0134765 7111:0.0250051 7113:0.0134765 7129:0.0225509 7156:0.026407 7161:0.0064675701 7169:0.0225509 7186:0.0070527899 7197:0.016100099 7199:0.0041523702 7219:0.0093814498 7239:0.0134765 7246:0.013222 7248:0.0108375 7258:0.0108375 7261:0.029590501 7263:0.0108375 7293:0.0134765 7308:0.0098038502 7309:0.0076096202 7315:0.0134765 7326:0.0134765 7327:0.0134765 7418:0.0125026 7434:0.026953099 7438:0.0101464 7445:0.0134765 7454:0.104672 7471:0.032274298 7475:0.0098634996 7479:0.017604301 7522:0.0134765 7530:0.0089801596 7569:0.0130668 7582:0.0098634996 7605:0.0076096202 7617:0.0134765 7618:0.0134765 7629:0.0134765 7642:0.0134765 7670:0.020292901 7698:0.023623001 7700:0.037507702 7731:0.0134765 7733:0.0125026 7752:0.0042794999 7774:0.0134765 7805:0.0101464 7846:0.0074093202 7883:0.087517902 7997:0.0096103996 8006:0.0134765 8037:0.0104672 8050:0.0091724396 8054:0.0134765 8070:0.0130668 8072:0.0086364103 8086:0.0134765 8163:0.0134765 8198:0.0134765 8245:0.0134765 8308:0.0134765 8317:0.0134765 8366:0.0088021401 8367:0.021675 8379:0.0080685597 8397:0.0134765 8403:0.0125026 8409:0.0098634996 8413:0.037507702 8417:0.0118115 8428:0.0108375 8447:0.0134765 8449:0.0118115 8490:0.026953099 8514:0.086109601 8614:0.0134765 8641:0.0404296 8647:0.0093814498 8651:0.0134765 8700:0.015890701 8760:0.0134765 8779:0.0404296 8786:0.0134765 8800:0.0134765 8834:0.0101464 8850:0.0134765 8896:0.0134765 8897:0.0134765 8898:0.053906199 8958:0.0134765 8962:0.0134765 8966:0.0134765 9004:0.020292901 9035:0.0134765 9046:0.0134765 9064:0.0225509 9065:0.0101464 9066:0.0125026 9106:0.0068925899 9115:0.0134765 9135:0.0112755 9145:0.0081984401 9173:0.00526659 9179:0.0134765 9187:0.0129351 9189:0.0101464 9220:0.0089801596 9222:0.0628611 9231:0.0404296 9233:0.0079453504 9247:0.35038999 9308:0.0157998 9365:0.0134765 9465:0.0134765 9488:0.0050773402 9505:0.0072244499 9509:0.026953099 9526:0.0096103996 9560:0.0059445598 9561:0.0125026 9654:0.0108375 9698:0.0104672 9724:0.0134765 9748:0.0134765 9812:0.0077164001 9834:0.0024021701 9897:0.0125026 9899:0.067382701 9901:0.0084813796 9934:0.0118115 9943:0.0134765 9945:0.075015299 10005:0.0125026 10024:0.0134765 10026:0.0134765 10032:0.0083357496 10033:0.0404296 10041:0.0101464 10056:0.00547203 10059:0.0187629 10088:0.0134765 10097:0.0134765 10105:0.0404296 10124:0.0125026 10126:0.0118115 10127:0.026953099 10138:0.025007199 10152:0.0134765 10168:0.0134765 10185:0.0066706901 10188:0.026953099 10189:0.0404296 10192:0.0134765 10201:0.00372268 10203:0.058359399 10211:0.0089801596 10226:0.0181072 10235:0.0125026 10236:0.0052275299 10240:0.0048351898 10242:0.0134765 10255:0.0092677502 10260:0.0134765 10263:0.0060513401 10289:0.038441598 10303:0.0048025101 10306:0.0134765 10319:0.0134765 10320:0.0134765 10322:0.038097199 10351:0.0108375 10355:0.0089801596 10364:0.0072244499 10369:0.0404296 10372:0.0134765 10373:0.0134765 10384:0.0096103996 10385:0.026953099 10389:0.0134765 10415:0.023623001 10428:0.0183449 10441:0.0108375 10457:0.0118115 10478:0.0134765 10507:0.0187629 10515:0.16171899 10516:0.080859303 10517:0.0404296 10518:0.0134765 10544:0.0056042899 10563:0.0134765 10573:0.037507702 10595:0.075015299 10637:0.0338264 10677:0.16171899 10685:0.024176 10718:0.0049705599 10736:0.0134765 10738:0.0134765 10749:0.0153421 10761:0.0091724396 10763:0.00640351 10772:0.0134765 10773:0.0134765 10857:0.0134765 10886:0.0076096202 10914:0.0134765 10915:0.0118115 10948:0.0134765 10984:0.026953099 11052:0.00410335 11059:0.024652399 11076:0.019220799 11079:0.0066706901 11121:0.0117858 11132:0.0105332 11141:0.0134765 11155:0.025629399 11189:0.0142742 11194:0.0099689299 11216:0.0076096202 11224:0.0134765 11237:0.0245953 11265:0.0088021401 11285:0.0134765 11315:0.0067424001 11347:0.0118115 #
0.33659199508301285 1:0.033457201 3:0.00549052 4:0.0093603097 78:0.0175304 118:0.0143403 120:0.0085354997 129:0.0153495 143:0.0222208 144:0.017080599 166:0.01284 183:0.023951899 189:0.020992599 196:0.0163022 199:0.0222208 207:0.020992599 210:0.0222208 229:0.00895976 232:0.062977701 297:0.023951899 324:0.038522899 325:0.020039899 408:0.0140833 410:0.020992599 422:0.023951899 427:0.0141213 435:0.049864501 510:0.113305 563:0.0175304 574:0.023951899 615:0.0175304 645:0.0175304 677:0.0712464 696:0.0192615 698:0.020992599 731:0.0529305 740:0.035060801 747:0.017080599 775:0.0192615 795:0.032357901 802:0.071855597 812:0.018033201 848:0.017080599 871:0.062576197 878:0.020039899 888:0.0196047 891:0.018033201 924:0.0116118 941:0.023951899 1034:0.063613601 1056:0.0100418 1070:0.023951899 1079:0.0222208 1080:0.023951899 1084:0.020992599 1093:0.0175304 1094:0.023951899 1095:0.023951899 1121:0.0222208 1130:0.0116118 1229:0.041985098 1282:0.0113809 1376:0.020039899 1439:0.0421082 1449:0.0120009 1454:0.0282425 1471:0.019299701 1491:0.056990199 1492:0.0163022 1502:0.023951899 1557:0.023951899 1566:0.0116118 1615:0.023951899 1628:0.023951899 1659:0.0222208 1718:0.023951899 1786:0.023951899 1827:0.023951899 1835:0.020992599 1880:0.018033201 1908:0.111104 1911:0.032604299 1948:0.044441499 1949:0.023951899 1950:0.444415 1952:0.16766299 1976:0.020992599 1999:0.047903702 2010:0.063841701 2026:0.0222208 2091:0.015960401 2092:0.024229299 2100:0.023951899 2144:0.088883102 2146:0.023951899 2179:0.0222208 2187:0.020992599 2211:0.0222208 2241:0.018603301 2267:0.018033201 2271:0.015644001 2282:0.023951899 2299:0.023951899 2301:0.31109101 2302:0.071855597 2304:0.023951899 2329:0.0163022 2331:0.0175304 2357:0.0163022 2405:0.047903702 2476:0.041985098 2562:0.0153495 2568:0.14671899 2585:0.0423638 2636:0.020039899 2645:0.0166736 2739:0.017080599 2749:0.018603301 2789:0.0150739 2798:0.0192615 2819:0.22324 2820:0.047903702 2845:0.0221131 2860:0.023951899 2867:0.020039899 2993:0.0232425 3004:0.031695802 3016:0.0192615 3108:0.013913 3143:0.030374199 3199:0.0222208 3204:0.0234641 3246:0.0122502 3254:0.0150739 3290:0.00895976 3319:0.0175304 3332:0.0222208 3342:0.036066499 3451:0.023951899 3462:0.0163022 3475:0.018033201 3486:0.023223599 3511:0.023951899 3567:0.018603301 3571:0.0123902 3572:0.017080599 3655:0.020992599 3673:0.037206698 3756:0.023951899 3803:0.018603301 3812:0.023951899 3860:0.015960401 3876:0.0141213 3968:0.018445101 3981:0.0453154 4005:0.0153495 4010:0.032604299 4038:0.013913 4050:0.062977701 4062:0.125955 4065:0.071855597 4106:0.0189947 4134:0.020992599 4136:0.023951899 4138:0.01127 4160:0.0133429 4236:0.0135246 4246:0.015644001 4328:0.0114948 4360:0.041985098 4404:0.023951899 4562:0.0150739 4589:0.023951899 4593:0.0222208 4606:0.0171872 4622:0.0066905599 4646:0.023951899 4668:0.0130011 4678:0.023711599 4750:0.023951899 4843:0.141463 4854:0.0137143 4856:0.024607999 4867:0.066694602 4892:0.0222208 4927:0.0210036 4932:0.0166736 4937:0.047903702 4939:0.191615 4976:0.0222208 4983:0.020992599 4984:0.0119833 5000:0.089270599 5019:0.0113809 5077:0.0163022 5092:0.0222208 5117:0.039971702 5127:0.023951899 5166:0.0222208 5208:0.020992599 5209:0.023951899 5213:0.023951899 5214:0.020039899 5215:0.023951899 5219:0.0175304 5242:0.0125349 5265:0.020591101 5350:0.067132503 5355:0.023951899 5367:0.175304 5369:0.0137143 5372:0.0133065 5382:0.023951899 5418:0.0175304 5429:0.054099701 5451:0.023951899 5453:0.023951899 5495:0.0222208 5496:0.0222208 5499:0.023951899 5516:0.015644001 5518:0.0192615 5528:0.0222208 5545:0.015960401 5553:0.0098023601 5573:0.0192615 5646:0.0153495 5658:0.023951899 5669:0.0135246 5696:0.023951899 5702:0.047903702 5731:0.0222208 5770:0.00895976 5776:0.023951899 5948:0.020992599 6053:0.023951899 6097:0.023951899 6151:0.023951899 6198:0.0141213 6240:0.041985098 6253:0.0222208 6283:0.0282425 6333:0.018033201 6334:0.023951899 6337:0.023951899 6400:0.023951899 6412:0.023951899 6415:0.044441499 6448:0.01284 6511:0.0166736 6552:0.020992599 6604:0.044441499 6632:0.018033201 6636:0.032604299 6683:0.0131686 6695:0.022957901 6771:0.0143403 6779:0.0175304 6804:0.023951899 6805:0.0222208 6817:0.023951899 6857:0.0148151 6880:0.040079702 6881:0.015960401 6886:0.032604299 6895:0.047903702 6928:0.0076526199 7001:0.0117321 7035:0.034805499 7046:0.0148151 7050:0.0192615 7058:0.015960401 7061:0.023951899 7073:0.0222208 7156:0.126719 7197:0.057229199 7199:0.02214 7246:0.0293744 7276:0.0192615 7279:0.023951899 7308:0.0435609 7346:0.0222208 7370:0.0113809 7396:0.0133429 7427:0.0245004 7429:0.080463603 7468:0.023951899 7471:0.0143403 7486:0.0192615 7487:0.047881301 7517:0.020039899 7576:0.0192615 7582:0.0175304 7698:0.020992599 7728:0.0150739 7735:0.015960401 7846:0.0131686 7873:0.0192615 7891:0.017080599 7934:0.0192615 7963:0.0175304 8000:0.0192615 8009:0.038522899 8017:0.0166736 8030:0.072855398 8039:0.0274287 8046:0.0166736 8152:0.023711599 8187:0.018603301 8217:0.0192615 8248:0.015960401 8268:0.023951899 8366:0.015644001 8379:0.0143403 8443:0.0222208 8464:0.023951899 8467:0.0166736 8537:0.0423638 8554:0.037206698 8620:0.0192615 8633:0.0163022 8636:0.015960401 8639:0.017080599 8645:0.0325596 8647:0.0166736 8667:0.040079702 8730:0.015960401 8731:0.0192615 8732:0.044441499 8733:0.020039899 8816:0.020992599 8828:0.0153495 8829:0.018603301 8951:0.16766299 8983:0.022989601 9065:0.036066499 9127:0.0222208 9173:0.028080899 9187:0.0114948 9193:0.0166736 9228:0.040079702 9300:0.013913 9308:0.037441202 9316:0.0166736 9330:0.023951899 9341:0.0222208 9367:0.0133429 9370:0.023951899 9390:0.044441499 9392:0.0175304 9450:0.015644001 9484:0.023951899 9485:0.020992599 9487:0.023951899 9522:0.023951899 9560:0.095087297 9562:0.020992599 9571:0.0145711 9690:0.037206698 9814:0.0430208 9834:0.0042693699 9837:0.029630199 9838:0.15006299 9839:0.047881301 9841:0.015644001 9867:0.0148151 9870:0.0114948 9968:0.018033201 9987:0.023951899 10032:0.103706 10060:0.015644001 10094:0.0963073 10119:0.023951899 10121:0.015644001 10130:0.023951899 10139:0.044441499 10185:0.0118558 10201:0.0198489 10203:0.202935 10207:0.045445699 10211:0.031920899 10220:0.029630199 10236:0.0278726 10255:0.021962101 10263:0.010755 10313:0.0141213 10322:0.13541999 10353:0.017080599 10359:0.020992599 10452:0.071855597 10529:0.020039899 10565:0.047903702 10593:0.047903702 10613:0.023951899 10619:0.0222208 10685:0.051561501 10718:0.0088341804 10721:0.018033201 10749:0.0090891402 10750:0.076108404 10759:0.0192615 10761:0.0163022 10766:0.020039899 10782:0.023951899 11049:0.033347301 11052:0.0218786 11091:0.035060801 11092:0.0197614 11105:0.0163022 11113:0.0471544 11132:0.028080899 11155:0.032536499 11186:0.020039899 11194:0.029529599 11196:0.025369501 11231:0.0191512 11234:0.0123902 11237:0.043713201 11239:0.011162 11271:0.0091553396 #
-0.7305249625666943 1:0.14212 3:0.069968201 4:0.119283 9:0.26751801 198:0.182744 265:0.174768 510:0.057755701 3982:0.30522901 4080:0.114178 4326:0.223398 4854:0.174768 4856:0.10453 5058:0.19560499 5449:0.30522901 5492:0.188796 7318:0.102527 9834:0.054406501 10081:0.30522901 10132:0.283169 10153:0.30522901 10203:0.057468601 10322:0.061632901 10325:0.15270799 10469:0.22980601 10998:0.207746 11194:0.075261898 11297:0.21247999 #
-0.60040922060864077 317:0.091159001 817:0.109 922:0.176222 1314:0.136871 1689:0.14171401 1720:0.081346899 1973:0.066872098 1978:0.081346899 2498:0.163486 3543:0.094468497 3981:0.0370446 4080:0.13184001 6028:0.290658 6107:0.163486 6405:0.0744913 6925:0.094468497 6928:0.056302998 7323:0.061550401 7525:0.095654003 9237:0.57549399 9834:0.031411301 10366:0.125668 10691:0.122674 10895:0.56465799 11069:0.098168202 11271:0.067359097 #
-1.0794031590941111 1:0.036286 3:0.035728499 425:0.106083 426:0.13040601 485:0.043294899 496:0.14459699 510:0.0294923 551:0.12534 1443:0.091891401 1973:0.059145801 2019:0.088008501 2231:0.155862 2679:0.13660499 2794:0.13660499 3981:0.032764599 4357:0.0719482 4597:0.14459699 4606:0.0559211 4856:0.0533772 4888:0.155862 4967:0.117348 5000:0.032272901 5068:0.12534 5086:0.13040601 5150:0.13660499 5350:0.067208 5961:0.155862 6308:0.093316399 6420:0.39121699 6928:0.0497979 7156:0.0305408 7540:0.155862 7541:0.46758601 7723:0.078833699 7995:0.088008501 8018:0.117348 8050:0.106083 8130:0.14459699 8287:0.14459699 8350:0.12534 8365:0.069986299 8588:0.155862 8741:0.14459699 9258:0.088008501 9662:0.13660499 9732:0.155862 9800:0.12534 9834:0.027782099 10004:0.14459699 10129:0.090535901 10203:0.029345701 10207:0.059145801 10226:0.052354399 10255:0.035728499 10322:0.031472199 10786:0.13660499 11126:0.057087 11305:0.117348 #
-0.44370146285255102 1:0.27891701 2:0.093940802 147:0.22246701 265:0.11433 266:0.146143 510:0.037782699 553:0.19967601 588:0.068381697 677:0.049495701 795:0.0539505 1122:0.083036102 1497:0.175005 2658:0.133055 2771:0.108384 3402:0.160574 3968:0.0768843 3981:0.0839497 4080:0.149387 4856:0.13676301 4927:0.058365699 5210:0.14239299 5278:0.160574 5959:0.10978 6366:0.18524399 6482:0.204248 6695:0.063796297 6986:0.13676301 7114:0.167063 7161:0.095826797 7197:0.047709402 7345:0.078620799 7752:0.063407302 7813:0.399351 8792:0.139 9383:0.273947 9834:0.0355918 10203:0.112785 10255:0.091543801 10303:0.142313 10617:0.112748 10745:0.150335 10936:0.107041 11059:0.182631 11079:0.19767299 11271:0.0763238 #
-1.4611894663568454 1:0.269346 2:0.054430399 3:0.0530416 118:0.069267496 408:0.034013301 451:0.062020902 481:0.084676802 510:0.109459 588:0.0396212 627:0.1014 677:0.0286784 1034:0.111735 1471:0.093223199 1568:0.067203604 2087:0.107333 2134:0.1014 2387:0.060547199 2424:0.1014 2425:0.089859501 2572:0.048905302 2753:0.087105803 2754:0.107333 2773:0.107333 2797:0.115694 2993:0.037422601 3290:0.043278199 3468:0.096798301 3552:0.13853499 3638:0.115694 3682:0.089859501 3843:0.132488 3952:0.072811499 3966:0.065327503 3981:0.218886 4039:0.096798301 4082:0.074142396 4106:0.0305833 4431:0.057266999 4622:0.064634703 4668:0.0627992 4843:0.0455538 4913:0.082503997 5000:0.119779 5259:0.093038402 5261:0.087105803 5350:0.049887601 5780:0.077093497 5828:0.071561299 5836:0.074142396 5936:0.064449802 5956:0.093038402 6547:0.107333 6556:0.093038402 6683:0.063607998 6801:0.21163701 6928:0.036964301 7001:0.056669202 7035:0.100872 7080:0.047348201 7156:0.068010204 7205:0.038129698 7246:0.056754701 7471:0.069267496 7475:0.084676802 7566:0.101179 7606:0.134407 7831:0.0627992 7838:0.115694 7878:0.0682097 8017:0.080538496 8065:0.082503997 8082:0.27911499 9126:0.082503997 9148:0.078744099 9300:0.067203604 9374:0.077093497 9392:0.084676802 9404:0.093038402 9488:0.043588299 9792:0.107333 9816:0.064449802 9834:0.0206223 9865:0.071561299 9867:0.143123 9887:0.107333 10118:0.115694 10142:0.067203604 10201:0.031958699 10203:0.043565899 10226:0.038862001 10255:0.0265208 10303:0.041228902 10322:0.140168 10568:0.115694 10714:0.1014 10718:0.042671598 11003:0.115694 11015:0.084676802 11054:0.179719 11114:0.084676802 11126:0.042374901 11155:0.062864199 11158:0.186077 11159:0.115694 11194:0.057054602 11196:0.0612709 11231:0.046252999 11337:0.035861298 #
1.2650044747524587 61:0.028854599 120:0.0221674 121:0.015731299 221:0.020314399 225:0.022179799 226:0.017808599 404:0.062204901 416:0.019238001 446:0.0195741 485:0.0172791 510:0.14124499 559:0.015731299 588:0.0319544 615:0.0227639 641:0.019238001 677:0.0231291 722:0.022179799 731:0.068732403 762:0.028854599 764:0.028854599 788:0.0311024 831:0.028854599 865:0.020725301 875:0.0500236 1034:0.0375477 1047:0.031462699 1056:0.0130397 1059:0.040450402 1072:0.0149265 1128:0.017562199 1130:0.0150784 1144:0.052045099 1213:0.028854599 1257:0.0149265 1299:0.13177299 1300:0.086563699 1439:0.0109358 1441:0.0250118 1449:0.0233755 1471:0.0125307 1473:0.019931899 1491:0.101756 1525:0.093307301 1646:0.0241572 1684:0.016277101 1695:0.086563699 1701:0.0260226 1721:0.023416899 1722:0.062204901 1723:0.023416899 1864:0.0160891 1923:0.036133099 1924:0.046833798 1974:0.0260226 1982:0.0311024 2053:0.0311024 2093:0.0311024 2192:0.0272597 2249:0.0227639 2360:0.0139659 2366:0.0311024 2372:0.093307301 2380:0.0227639 2422:0.072471596 2456:0.120786 2489:0.062204901 2557:0.0195741 2589:0.028854599 2609:0.062204901 2629:0.0241572 2636:0.0260226 2637:0.023416899 2707:0.0173262 2817:0.062204901 2829:0.0272597 2845:0.057429399 2851:0.0311024 2940:0.081779003 2947:0.0227639 2993:0.0100604 2999:0.023416899 3034:0.0744856 3046:0.054519299 3049:0.028854599 3061:0.0170999 3072:0.062204901 3143:0.026294701 3157:0.044359598 3197:0.046833798 3259:0.023416899 3327:0.0311024 3370:0.0134835 3432:0.12441 3452:0.0216514 3486:0.0603135 3535:0.028186601 3565:0.019238001 3571:0.144802 3572:0.066539399 3619:0.0311024 3684:0.028854599 3717:0.081779003 3729:0.028854599 3752:0.028854599 3797:0.139523 3843:0.017808599 3844:0.0272597 3856:0.062175799 3860:0.0414505 3886:0.0134835 3905:0.023951801 3974:0.0250118 3975:0.028854599 3981:0.13076399 3990:0.0500236 4004:0.0138413 4010:0.105845 4016:0.057709102 4017:0.0272597 4022:0.0311024 4106:0.0411091 4246:0.020314399 4350:0.062204901 4357:0.043072101 4405:0.0173262 4412:0.0311024 4421:0.070250697 4442:0.0311024 4606:0.022318199 4622:0.052127801 4659:0.0250118 4691:0.0132572 4843:0.0122464 4845:0.017808599 4927:0.027274 4930:0.0272597 5000:0.135242 5019:0.0147786 5044:0.062204901 5136:0.0227639 5160:0.054519299 5162:0.0311024 5163:0.023416899 5178:0.019931899 5265:0.0401075 5350:0.100586 5372:0.069116399 5384:0.0140933 5386:0.0227639 5458:0.0272597 5516:0.020314399 5517:0.052045099 5770:0.058173001 5790:0.015907399 5846:0.020725301 5884:0.018337 5923:0.057709102 5946:0.0229431 5967:0.0136002 5982:0.0122464 5989:0.0311024 6028:0.0170999 6062:0.0250118 6069:0.017808599 6166:0.015907399 6198:0.018337 6304:0.0241572 6375:0.0119759 6469:0.12441 6476:0.12505899 6559:0.0250118 6741:0.0250118 6808:0.0131474 6824:0.025257699 6826:0.018066499 6928:0.0099372296 6957:0.0311024 7035:0.018078599 7080:0.050914999 7082:0.0311024 7083:0.117445 7135:0.0311024 7156:0.091416903 7158:0.015731299 7197:0.029725799 7199:0.038332999 7213:0.028854599 7217:0.0173262 7244:0.0250118 7246:0.038143799 7250:0.0125307 7308:0.022626299 7353:0.0260226 7427:0.015907399 7438:0.046833798 7452:0.0311024 7655:0.054519299 7659:0.0260226 7742:0.020725301 7846:0.0170999 7917:0.028854599 7975:0.0272597 7987:0.052045099 7992:0.020725301 8001:0.0241572 8036:0.0311024 8074:0.0272597 8075:0.018337 8120:0.0311024 8140:0.0311024 8199:0.062204901 8221:0.0311024 8224:0.0164716 8226:0.0241572 8267:0.0168825 8289:0.028854599 8314:0.0260226 8371:0.0149265 8430:0.028854599 8465:0.173142 8466:0.0311024 8468:0.093307301 8618:0.0227639 8656:0.0311024 8781:0.015907399 8914:0.020725301 8916:0.062204901 8917:0.019931899 8985:0.023416899 9025:0.0311024 9081:0.052045099 9107:0.0311024 9117:0.0227639 9124:0.0130397 9188:0.0241572 9189:0.023416899 9224:0.067529999 9228:0.0260226 9269:0.023416899 9358:0.0170999 9363:0.0155608 9367:0.034652501 9446:0.023436001 9537:0.0216514 9587:0.078067698 9588:0.0311024 9756:0.020314399 9758:0.028854599 9759:0.0500236 9823:0.084676102 9824:0.093307301 9825:0.062204901 9834:0.00554395 9880:0.028854599 9913:0.0272597 9933:0.0173262 10006:0.028854599 10039:0.21771701 10040:0.0311024 10044:0.0311024 10089:0.046833798 10145:0.0173262 10185:0.061581001 10201:0.017183101 10203:0.32207799 10208:0.025660999 10214:0.049737301 10240:0.0111591 10246:0.0195741 10255:0.035648301 10276:0.0144942 10310:0.021168999 10313:0.036674 10322:0.169568 10347:0.018337 10442:0.0272597 10469:0.023416899 10544:0.0258682 10550:0.046185698 10685:0.0111591 10718:0.0229431 10720:0.052045099 10755:0.052589498 10757:0.021168999 10759:0.0250118 10763:0.044335902 10828:0.0260226 10878:0.022179799 10881:0.0132572 10986:0.0311024 11014:0.043482699 11032:0.0146346 11113:0.0244927 11119:0.028854599 11121:0.040800601 11126:0.034175299 11155:0.0084499903 11194:0.0613527 11226:0.0311215 11229:0.0311024 11230:0.0166733 11250:0.022179799 11253:0.093307301 11254:0.373229 11263:0.038476001 11313:0.016277101 11316:0.0311024 11335:0.19007 #
0.61467663590263322 120:0.039005801 121:0.027681001 141:0.032265902 170:0.0507727 255:0.0507727 287:0.0440109 333:0.176044 335:0.0507727 408:0.048268899 427:0.032265902 451:0.029338401 485:0.0152022 493:0.0440109 510:0.144979 559:0.027681001 561:0.032265902 572:0.0440109 607:0.045789499 662:0.054728001 668:0.101545 677:0.013566 686:0.047966301 731:0.075588703 740:0.040055498 795:0.029573999 892:0.045789499 1034:0.066069096 1047:0.027681001 1056:0.022944801 1187:0.037249099 1212:0.054728001 1232:0.054728001 1283:0.0507727 1348:0.035745401 1439:0.076971099 1449:0.0274211 1480:0.054728001 1881:0.054728001 1921:0.054728001 1963:0.039027698 2013:0.114294 2024:0.039027698 2027:0.047966301 2065:0.078055397 2102:0.0507727 2185:0.0507727 2211:0.0507727 2212:0.040055498 2213:0.039027698 2246:0.054728001 2332:0.045789499 2373:0.045789499 2378:0.054728001 2387:0.0286413 2494:0.039027698 2587:0.036468301 2595:0.045789499 2607:0.036468301 2636:0.045789499 2637:0.041204501 2707:0.0304874 2726:0.045789499 2727:0.0507727 2815:0.0440109 2844:0.042507101 2952:0.085014299 2953:0.036468301 2954:0.101545 2965:0.0507727 2972:0.054728001 2993:0.088512003 3004:0.024140799 3006:0.054728001 3057:0.047966301 3077:0.047966301 3157:0.039027698 3204:0.0268068 3370:0.023725601 3457:0.054728001 3535:0.049597301 3542:0.0440109 3571:0.028310601 3625:0.037249099 3740:0.047966301 3835:0.028310601 3846:0.045789499 3854:0.054728001 3886:0.023725601 3905:0.021072799 3946:0.054728001 3981:0.069027998 4004:0.073065497 4005:0.035072301 4021:0.133175 4042:0.0304874 4044:0.0507727 4085:0.054728001 4106:0.0144671 4329:0.0304874 4343:0.054728001 4367:0.032265902 4375:0.028310601 4405:0.0304874 4408:0.039027698 4587:0.030902499 4606:0.0981782 4622:0.061149601 4680:0.0507727 4691:0.023327401 4731:0.054728001 4745:0.054728001 4751:0.061805099 4788:0.025751101 4796:0.039027698 4911:0.071490698 4927:0.031994302 4940:0.0507727 4977:0.054728001 4981:0.054728001 4983:0.047966301 5000:0.067992099 5051:0.041204501 5165:0.054728001 5342:0.054728001 5350:0.106195 5367:0.040055498 5372:0.152022 5501:0.0507727 5553:0.0223976 5646:0.035072301 5649:0.047966301 5667:0.0223976 5725:0.0507727 5770:0.020472299 5771:0.054179098 5814:0.095932499 5835:0.0297065 5836:0.035072301 5848:0.032766301 5876:0.031336199 5900:0.035745401 5903:0.047966301 5904:0.054728001 5936:0.0304874 5970:0.039027698 6033:0.0255042 6159:0.0507727 6166:0.027990701 6270:0.023327401 6405:0.0231342 6407:0.042507101 6418:0.0507727 6603:0.109456 6695:0.0699424 6711:0.037249099 6765:0.024798701 6808:0.0231342 6811:0.039027698 6835:0.054728001 6882:0.047966301 6956:0.038097899 7001:0.0268068 7035:0.0477167 7062:0.021072799 7109:0.054728001 7131:0.047966301 7156:0.193029 7162:0.0440109 7197:0.026152801 7205:0.0180369 7246:0.040270802 7278:0.076195903 7286:0.054728001 7308:0.019906599 7309:0.092707597 7318:0.0183833 7323:0.0573458 7336:0.039027698 7345:0.0215488 7566:0.023931 7586:0.0440109 7775:0.096797802 7915:0.0507727 8051:0.040055498 8267:0.0297065 8286:0.0507727 8311:0.054728001 8365:0.024574401 8537:0.0645319 8540:0.040055498 8544:0.040055498 8545:0.039027698 8555:0.039027698 8578:0.0507727 8765:0.037249099 8983:0.026264699 8993:0.109456 9072:0.040055498 9106:0.027990701 9124:0.045889501 9128:0.038097899 9129:0.047966301 9157:0.033293702 9258:0.030902499 9308:0.042775098 9310:0.0289836 9329:0.054728001 9354:0.054728001 9358:0.060178299 9360:0.054728001 9416:0.054728001 9427:0.054728001 9428:0.031336199 9445:0.25386301 9446:0.041237999 9488:0.020618999 9554:0.0289836 9555:0.045789499 9572:0.045789499 9583:0.080110997 9627:0.054728001 9692:0.036468301 9697:0.0507727 9738:0.094008498 9804:0.033851299 9805:0.040055498 9812:0.031336199 9834:0.00975517 10018:0.054728001 10056:0.0222218 10196:0.050056402 10201:0.19653 10203:0.216388 10220:0.033851299 10236:0.0212289 10247:0.12361 10251:0.0344427 10255:0.062726997 10263:0.024574401 10322:0.209966 10345:0.109456 10347:0.032265902 10544:0.022758899 10661:0.054728001 10694:0.109456 10718:0.0201854 10749:0.020768 10756:0.0270896 10825:0.031336199 10830:0.109456 10881:0.046654701 10903:0.071490698 10981:0.117083 11043:0.047966301 11052:0.066654503 11113:0.0430976 11125:0.067702703 11126:0.040089998 11137:0.109456 11139:0.0297065 11155:0.0148686 11183:0.054728001 11194:0.040483698 11230:0.029338401 11251:0.0975146 11345:0.0507727 #
0.16009288491594936 1:0.0134139 2:0.0271072 3:0.075944804 11:0.025249399 12:0.0133634 47:0.022375699 61:0.0267267 105:0.0432132 120:0.0102663 121:0.029142501 135:0.0160485 136:0.032535098 141:0.0169848 142:0.0144044 143:0.0133634 166:0.030887401 171:0.0105426 175:0.0126247 194:0.0178193 195:0.018462099 213:0.0376327 221:0.0094081704 226:0.00824768 227:0.0144044 239:0.0120518 256:0.0133634 258:0.0267267 313:0.0134254 317:0.0074513298 331:0.0276931 334:0.0126247 365:0.0144044 368:0.0126247 408:0.0296435 412:0.0144044 416:0.0089096697 423:0.0144044 431:0.0133634 432:0.0086240899 435:0.044982001 441:0.0144044 443:0.010845 446:0.018130699 451:0.0154437 452:0.0070555401 471:0.0172482 485:0.036010899 493:0.0115837 495:0.029805301 498:0.028808801 510:0.16081101 559:0.0072856299 563:0.042170402 568:0.0133634 588:0.014799 595:0.00906533 599:0.0120518 606:0.0115837 619:0.0105426 636:0.0126247 641:0.035638701 677:0.035705801 678:0.0075383801 706:0.00824768 722:0.112993 727:0.0144044 731:0.059684802 739:0.00824768 777:0.00906533 783:0.022375699 795:0.0194597 803:0.0133634 817:0.026729001 836:0.0144044 888:0.00589504 909:0.0160485 924:0.027932899 927:0.0144044 933:0.0120518 994:0.028808801 995:0.0102721 998:0.0149027 1001:0.0196079 1002:0.0105426 1034:0.0382566 1047:0.058285002 1056:0.036234301 1059:0.0124891 1064:0.0115837 1081:0.00762848 1087:0.0064679799 1108:0.0120518 1115:0.0432132 1122:0.029950799 1128:0.0081335399 1130:0.0069832099 1139:0.0144044 1186:0.0144044 1187:0.0098039703 1218:0.0144044 1228:0.0144044 1257:0.055302899 1282:0.0068443902 1331:0.0144044 1338:0.028808801 1348:0.0188163 1376:0.024103601 1381:0.0267267 1393:0.0144044 1417:0.0133634 1439:0.075970396 1449:0.0108258 1470:0.00906533 1478:0.0401095 1482:0.0267267 1491:0.0342733 1492:0.0098039703 1544:0.037874199 1566:0.0209496 1588:0.0111879 1596:0.0144044 1603:0.0133634 1648:0.0144044 1650:0.0100274 1651:0.0100274 1693:0.0115837 1700:0.0144044 1749:0.0144044 1752:0.024103601 1767:0.0115837 1811:0.025249399 1843:0.042170402 1845:0.024103601 1874:0.0144044 1913:0.0144044 1935:0.041088302 1941:0.0144044 1957:0.010845 1964:0.0133634 1978:0.0066492902 2059:0.0133634 2060:0.0080242697 2065:0.0102721 2106:0.02169 2116:0.028808801 2129:0.0144044 2137:0.025249399 2158:0.0144044 2181:0.0115837 2186:0.0105426 2201:0.0432132 2202:0.040090099 2203:0.0126247 2212:0.0105426 2213:0.061632499 2264:0.0111879 2265:0.0432132 2268:0.0126247 2269:0.028808801 2283:0.0126247 2305:0.0133634 2313:0.0154437 2331:0.0105426 2338:0.0144044 2360:0.0064679799 2445:0.028808801 2447:0.0144044 2501:0.0126247 2509:0.0098039703 2528:0.0133634 2557:0.027195999 2564:0.0133634 2568:0.0098039703 2573:0.00671269 2579:0.0079194596 2587:0.0095984498 2593:0.025477201 2646:0.0126247 2690:0.060258899 2724:0.0111879 2742:0.0095984498 2766:0.0144044 2768:0.0115837 2785:0.00906533 2811:0.0111879 2819:0.0111879 2830:0.031677801 2836:0.0144044 2843:0.010845 2845:0.0132986 2862:0.050498899 2881:0.0169848 2905:0.0133634 2928:0.0073671401 2947:0.052712999 2952:0.0111879 2964:0.024103601 2975:0.0144044 2993:0.032614902 3004:0.0127077 3051:0.0094081704 3061:0.0079194596 3096:0.010845 3102:0.0111879 3108:0.0083671203 3124:0.036155399 3128:0.0105426 3143:0.0060889102 3149:0.0196079 3181:0.0401095 3191:0.023167299 3202:0.010845 3204:0.063499898 3214:0.010845 3246:0.0073671401 3258:0.0120518 3295:0.0144044 3305:0.0126247 3319:0.0105426 3370:0.081179403 3407:0.0126247 3430:0.0115837 3485:0.0111879 3486:0.0139664 3535:0.026108 3555:0.0191969 3568:0.0144044 3571:0.037256699 3572:0.0821767 3583:0.0120518 3621:0.028808801 3648:0.0111879 3660:0.0144044 3664:0.0120518 3681:0.0144044 3682:0.0111879 3687:0.0133634 3733:0.026288699 3734:0.0267267 3743:0.0144044 3753:0.0126247 3800:0.00906533 3841:0.0144044 3851:0.010845 3886:0.00624457 3894:0.0144044 3905:0.0110927 3906:0.0432132 3944:0.0144044 3952:0.00906533 3966:0.032534201 3967:0.0095984498 3968:0.0110927 3981:0.036336299 3989:0.0144044 4004:0.0128206 4005:0.00923103 4021:0.00876291 4032:0.021085201 4036:0.0432132 4038:0.0083671203 4068:0.0133634 4077:0.028808801 4106:0.026654299 4140:0.0084923897 4142:0.0105426 4193:0.0144044 4218:0.046334699 4242:0.0133634 4245:0.0120518 4252:0.024103601 4272:0.0267267 4273:0.0144044 4290:0.0100274 4299:0.0237686 4326:0.073798202 4328:0.0207386 4367:0.0084923897 4375:0.052159298 4385:0.0089096697 4391:0.0126247 4405:0.0080242697 4408:0.041088302 4432:0.023167299 4439:0.0126247 4452:0.0432132 4464:0.0120518 4477:0.0126247 4511:0.0144044 4527:0.039597299 4534:0.028808801 4562:0.00906533 4585:0.0276931 4606:0.031008599 4622:0.0724255 4630:0.057617702 4640:0.050202701 4649:0.00923103 4650:0.010845 4658:0.0433801 4678:0.00712997 4680:0.0133634 4688:0.0191969 4691:0.018419299 4716:0.0102721 4729:0.00923103 4740:0.057590701 4746:0.0133634 4751:0.032534201 4777:0.0111879 4806:0.0095984498 4837:0.0098039703 4843:0.022686601 4845:0.024743 4867:0.0100274 4903:0.0144044 4911:0.0094081704 4921:0.0144044 4926:0.0133634 4927:0.0378941 4933:0.0111879 4944:0.0133634 4967:0.02169 5000:0.193868 5029:0.0144044 5034:0.0133634 5036:0.0144044 5038:0.0094081704 5069:0.0120518 5078:0.0133634 5090:0.0111879 5117:0.0144232 5133:0.0120518 5149:0.0144044 5156:0.010845 5178:0.00923103 5227:0.0139664 5257:0.0144044 5265:0.0123833 5272:0.0133634 5277:0.0095984498 5293:0.0133634 5321:0.0144044 5350:0.0838513 5356:0.0133634 5372:0.0600182 5384:0.0065270099 5390:0.0120518 5473:0.0126247 5480:0.0133634 5486:0.061340399 5489:0.044751499 5513:0.023167299 5516:0.0188163 5518:0.0115837 5532:0.010845 5553:0.00589504 5582:0.040090099 5599:0.0267267 5646:0.00923103 5662:0.0100274 5667:0.023580199 5669:0.0081335399 5699:0.0133634 5718:0.0144044 5722:0.010845 5739:0.028808801 5770:0.048494801 5771:0.00712997 5780:0.0095984498 5793:0.018130699 5833:0.0200547 5846:0.0095984498 5872:0.086426497 5876:0.016495399 5877:0.0144044 5881:0.0144132 5900:0.0094081704 5902:0.0133634 5905:0.0144044 5909:0.0105426 5938:0.0144044 5943:0.0144044 5946:0.0212512 5971:0.0100274 5977:0.036924101 5978:0.043239702 5980:0.0144044 5982:0.045373101 6008:0.0056716399 6009:0.00906533 6012:0.0144044 6025:0.0282245 6033:0.046988901 6069:0.016495399 6070:0.0100274 6072:0.0144044 6074:0.067939103 6075:0.0111879 6076:0.0084923897 6124:0.052712999 6154:0.021085201 6166:0.0073671401 6186:0.0051331702 6198:0.0084923897 6209:0.0075383801 6214:0.0057586799 6216:0.0098039703 6239:0.0144044 6250:0.0144044 6270:0.0061397599 6363:0.00923103 6364:0.0120518 6368:0.0144044 6375:0.033278201 6405:0.042622399 6408:0.0094081704 6411:0.0133634 6440:0.0144044 6493:0.0120518 6497:0.0094081704 6526:0.0144044 6528:0.0178193 6550:0.040090099 6559:0.0115837 6605:0.030082099 6636:0.0098039703 6643:0.044751499 6683:0.0079194596 6695:0.032215498 6722:0.0060390602 6727:0.028808801 6729:0.0144044 6743:0.0126247 6744:0.00923103 6745:0.0102721 6746:0.042170402 6747:0.0144044 6748:0.072310701 6753:0.0115837 6765:0.019580999 6801:0.0131748 6808:0.1096 6848:0.025249399 6850:0.0089096697 6855:0.0133634 6857:0.026729001 6885:0.0127077 6886:0.0098039703 6900:0.0144044 6906:0.0133634 6925:0.030887401 6928:0.0184088 6986:0.014799 6992:0.028808801 7012:0.0144044 7019:0.0126247 7035:0.0460498 7053:0.010845 7062:0.0166391 7064:0.096414298 7066:0.024103601 7080:0.0176851 7097:0.0133634 7105:0.0126247 7108:0.038393799 7112:0.0111879 7116:0.0120518 7117:0.0144044 7156:0.19193099 7162:0.0115837 7165:0.0083671203 7174:0.0095984498 7181:0.024103601 7186:0.022615099 7197:0.079159401 7199:0.022191299 7205:0.0094946204 7217:0.0080242697 7246:0.045930199 7250:0.034820002 7252:0.0276931 7253:0.0133634 7308:0.0052394299 7323:0.020124501 7345:0.022686601 7352:0.028808801 7362:0.0144044 7370:0.0068443902 7380:0.0144044 7427:0.0294686 7429:0.034564301 7431:0.0144044 7466:0.0141111 7477:0.42762801 7478:0.084362499 7518:0.0126247 7519:0.0115837 7561:0.0120518 7566:0.00629863 7582:0.021085201 7612:0.0120518 7614:0.0144044 7620:0.023167299 7635:0.0144044 7660:0.0267267 7668:0.0144044 7669:0.0115837 7680:0.0810856 7681:0.0432132 7716:0.0133634 7723:0.0072856299 7765:0.00762848 7775:0.0084923897 7831:0.0156375 7834:0.0267267 7835:0.0095984498 7845:0.0111879 7848:0.0078187501 7855:0.0115837 7869:0.0144044 7885:0.0144044 7888:0.026288699 7910:0.0144044 7914:0.0144044 7921:0.025249399 7931:0.0144044 7935:0.0144044 7955:0.0144044 7956:0.0144044 7965:0.00923103 7974:0.0623677 7986:0.0100274 8007:0.0115837 8027:0.0100274 8028:0.0084923897 8042:0.0089096697 8070:0.0069832099 8075:0.0084923897 8104:0.100998 8106:0.057918299 8116:0.010845 8124:0.0144044 8125:0.020544199 8135:0.028808801 8152:0.00712997 8181:0.00923103 8183:0.0095984498 8188:0.0401095 8189:0.0126247 8224:0.00762848 8264:0.0482071 8267:0.0156375 8269:0.0133634 8273:0.0100274 8279:0.02169 8302:0.0100274 8352:0.018130699 8362:0.0144044 8365:0.032339901 8371:0.0069128601 8379:0.0086240899 8385:0.023167299 8387:0.0150768 8392:0.0086240899 8395:0.0133634 8405:0.0078187501 8408:0.0196079 8467:0.060164198 8501:0.021085201 8534:0.0144044 8538:0.0144044 8645:0.013054 8672:0.0105426 8678:0.0111879 8700:0.0169848 8716:0.0133634 8730:0.0095984498 8764:0.0120518 8766:0.033563599 8781:0.0221014 8787:0.0144044 8827:0.028808801 8910:0.0144044 8914:0.0191969 8917:0.00923103 8920:0.0144044 8924:0.0144044 8949:0.0144044 8965:0.0144044 8972:0.0144044 8983:0.0069128601 8986:0.0126247 8991:0.0144044 9012:0.0105426 9013:0.0078187501 9023:0.0267267 9030:0.0133634 9047:0.0144044 9094:0.0084923897 9124:0.0060390602 9157:0.0175258 9158:0.0133634 9161:0.025477201 9173:0.0168876 9188:0.022375699 9189:0.032535098 9201:0.0126247 9207:0.0084923897 9233:0.0169848 9258:0.0162671 9259:0.010845 9267:0.0282245 9280:0.0144044 9281:0.106907 9282:0.0126247 9297:0.0144044 9308:0.0056292 9310:0.015257 9333:0.0144044 9338:0.024103601 9367:0.0080242697 9368:0.0133634 9374:0.0095984498 9391:0.0144044 9428:0.0577337 9446:0.0108538 9483:0.0120518 9488:0.059696201 9493:0.0169848 9496:0.025249399 9512:0.0111879 9529:0.010845 9537:0.0100274 9552:0.0111879 9554:0.00762848 9560:0.0127077 9579:0.0144044 9583:0.0105426 9604:0.0115837 9663:0.0095984498 9671:0.02169 9679:0.0432132 9680:0.0120518 9682:0.0150768 9692:0.0095984498 9697:0.0133634 9717:0.057617702 9743:0.0133634 9790:0.052712999 9791:0.066816799 9804:0.071277298 9805:0.0316278 9811:0.0098039703 9817:0.0126247 9834:0.0025675599 9865:0.0089096697 9870:0.0138257 9882:0.0267267 9883:0.040090099 9884:0.024103601 9895:0.0105426 9901:0.00906533 9940:0.010845 9965:0.0126247 9968:0.02169 9976:0.0267267 9977:0.0144044 9978:0.0267267 10016:0.045326602 10020:0.0144044 10021:0.037691899 10070:0.12964 10121:0.0188163 10157:0.0144044 10191:0.0115837 10193:0.0144044 10196:0.0197623 10197:0.0080242697 10199:0.0079194596 10201:0.091516703 10203:0.34714401 10207:0.0273306 10208:0.017826499 10209:0.0144044 10213:0.0094081704 10214:0.0057586799 10224:0.031275 10226:0.0145154 10236:0.0111749 10238:0.037874199 10240:0.0051680999 10255:0.039623398 10259:0.0133634 10263:0.019403899 10268:0.0144044 10271:0.0075383801 10279:0.0126247 10290:0.0095984498 10303:0.0051331702 10305:0.0083671203 10322:0.148338 10328:0.0133634 10353:0.0102721 10433:0.0144044 10437:0.0115837 10459:0.0102721 10491:0.0081335399 10498:0.0080242697 10544:0.017970501 10550:0.00712997 10552:0.0191969 10558:0.0102721 10564:0.028808801 10569:0.0126247 10580:0.0144044 10581:0.0133634 10582:0.0162671 10624:0.0144044 10641:0.0144044 10645:0.0115837 10646:0.0144044 10665:0.0126247 10667:0.0100274 10673:0.0126247 10685:0.0206724 10689:0.025249399 10697:0.022375699 10707:0.0126247 10718:0.127507 10753:0.0267267 10755:0.0060889102 10756:0.00712997 10757:0.0098039703 10762:0.0094081704 10763:0.0136888 10808:0.0111879 10820:0.02169 10825:0.016495399 10855:0.131714 10858:0.021085201 10877:0.0095984498 10880:0.0144044 10881:0.036838599 10886:0.0081335399 10920:0.0144044 10962:0.0083671203 10965:0.0126247 10981:0.0102721 10997:0.0100274 11014:0.0201381 11015:0.0105426 11032:0.0338885 11052:0.0087717297 11092:0.0059421598 11093:0.0133634 11098:0.0133634 11100:0.0154437 11113:0.0113433 11118:0.0121778 11121:0.0125973 11126:0.100241 11127:0.0070555401 11132:0.0225168 11134:0.0100274 11155:0.0117403 11171:0.028808801 11191:0.0105426 11194:0.049724702 11195:0.00671269 11226:0.021619899 11231:0.0403108 11234:0.0149027 11236:0.0240728 11248:0.0126247 11251:0.020532699 11257:0.0144044 11266:0.028795401 11268:0.028808801 11315:0.0072066202 11320:0.0196079 11333:0.032097101 11335:0.112034 11337:0.058043402 11340:0.00906533 11375:0.0144044 11380:0.0144044 #
0.74812054409184203 121:0.11014 229:0.0814576 588:0.074574403 888:0.089118101 1491:0.064765804 1953:0.20202 2387:0.113961 2888:0.14510401 3290:0.0814576 3370:0.094402097 3886:0.094402097 3981:0.045776099 4640:0.12649 4678:0.107787 5000:0.225445 5117:0.14536101 5350:0.0938977 5429:0.327898 5982:0.085740797 6559:0.175116 6765:0.098671801 7001:0.106662 7156:0.12800799 7630:0.36438501 7752:0.138299 8061:0.15937699 8075:0.256767 8217:0.175116 8501:0.15937699 8659:0.217758 8677:0.163949 9126:0.155288 9738:0.124684 9816:0.121307 9834:0.038814999 9870:0.104505 10197:0.121307 10203:0.081999101 10303:0.077600501 10322:0.043970399 10749:0.082633898 10881:0.092817597 11048:0.10052 11052:0.066303201 11121:0.095219299 11127:0.106662 11132:0.085099198 11251:0.155201 11335:0.120976 11337:0.067497604 #
0.34229588412725831 2:0.17656 3:0.114703 69:0.12509599 378:0.375287 408:0.036777198 424:0.116055 510:0.047341399 552:0.083358102 677:0.0310088 795:0.0337997 888:0.0511957 1034:0.0302037 1454:0.147505 1489:0.097161397 1492:0.170286 2131:0.41266099 2579:0.068776801 2707:0.069687001 3200:0.250191 3789:0.053771399 3905:0.048167601 4396:0.12509599 4668:0.0679022 4854:0.0716272 4856:0.042840801 5000:0.025902299 5022:0.052879401 5117:0.0417528 5242:0.065467298 5723:0.12509599 5909:0.18311501 5910:0.12509599 5976:0.12509599 5982:0.049255501 6462:0.232109 7156:0.122561 7166:0.065467298 7197:0.059779301 7308:0.045502 7654:0.116055 7737:0.12509599 7856:0.12509599 8070:0.060645901 8811:0.232109 9199:0.0817056 9223:0.089208297 9642:0.12509599 9834:0.022298099 10036:0.12509599 10203:0.18842401 10560:0.250191 10685:0.089765102 11069:0.069687001 11155:0.0339863 11271:0.047816399 #
